{"learner":{"attributes":{"scikit_learn":"{\"_estimator_type\": \"classifier\"}"},"feature_names":["Time","V1","V2","V3","V4","V5","V6","V7","V8","V9","V10","V11","V12","V13","V14","V15","V16","V17","V18","V19","V20","V21","V22","V23","V24","V25","V26","V27","V28","Amount"],"feature_types":["float","float","float","float","float","float","float","float","float","float","float","float","float","float","float","float","float","float","float","float","float","float","float","float","float","float","float","float","float","float"],"gradient_booster":{"model":{"gbtree_model_param":{"num_parallel_tree":"1","num_trees":"100"},"iteration_indptr":[0,1,2,3,4,5,6,7,8,9,10,11,12,13,14,15,16,17,18,19,20,21,22,23,24,25,26,27,28,29,30,31,32,33,34,35,36,37,38,39,40,41,42,43,44,45,46,47,48,49,50,51,52,53,54,55,56,57,58,59,60,61,62,63,64,65,66,67,68,69,70,71,72,73,74,75,76,77,78,79,80,81,82,83,84,85,86,87,88,89,90,91,92,93,94,95,96,97,98,99,100],"tree_info":[0,0,0,0,0,0,0,0,0,0,0,0,0,0,0,0,0,0,0,0,0,0,0,0,0,0,0,0,0,0,0,0,0,0,0,0,0,0,0,0,0,0,0,0,0,0,0,0,0,0,0,0,0,0,0,0,0,0,0,0,0,0,0,0,0,0,0,0,0,0,0,0,0,0,0,0,0,0,0,0,0,0,0,0,0,0,0,0,0,0,0,0,0,0,0,0,0,0,0,0],"trees":[{"base_weights":[-1.1198446E0,2.158408E0,-1.1328042E0,6.783662E0,-7.620776E-1,-7.1637756E-1,-3.4010258E-1,7.03334E0,5.5759758E-2,8.5471976E-1,-9.247028E-1,2.911343E0,-3.2766736E-1,4.6854963E0,2.267696E0,3.179145E-1,-1.0078508E0,5.5759758E-2,1.150339E0,-1.2763911E-1,1.8553274E0,-3.3411837E-1,1.9990329E-2,4.878845E-1,-2.6659375E-1],"categories":[],"categories_nodes":[],"categories_segments":[],"categories_sizes":[],"default_left":[0,0,0,0,0,0,0,0,0,0,0,0,0,0,0,0,0,0,0,0,0,0,0,0,0],"id":0,"left_children":[1,3,5,7,9,11,-1,13,-1,-1,15,17,-1,19,-1,-1,21,-1,-1,-1,-1,-1,23,-1,-1],"loss_changes":[1.0241914E3,1.2890082E3,7.876953E0,5.945642E1,3.737509E1,7.505958E1,0E0,8.411499E0,0E0,0E0,1.0532848E1,1.242532E1,0E0,7.255414E1,0E0,0E0,6.069458E0,0E0,0E0,0E0,0E0,0E0,1.045319E1,0E0,0E0],"parents":[2147483647,0,0,1,1,2,2,3,3,4,4,5,5,7,7,10,10,11,11,13,13,16,16,22,22],"right_children":[2,4,6,8,10,12,-1,14,-1,-1,16,18,-1,20,-1,-1,22,-1,-1,-1,-1,-1,24,-1,-1],"split_conditions":[-3.6156354E0,-2.2186575E0,-1.6137081E0,1.3146542E0,-6.842839E-1,-2.2751307E0,-3.4010258E-1,-2.6461473E-1,5.5759758E-2,8.5471976E-1,-1.8875681E0,1.3515254E0,-3.2766736E-1,-1.3471355E0,2.267696E0,3.179145E-1,4.4060087E0,5.5759758E-2,1.150339E0,-1.2763911E-1,1.8553274E0,-3.3411837E-1,5.7837334E-2,4.878845E-1,-2.6659375E-1],"split_indices":[14,10,17,7,7,12,0,26,0,0,10,4,0,0,0,0,4,0,0,0,0,0,15,0,0],"split_type":[0,0,0,0,0,0,0,0,0,0,0,0,0,0,0,0,0,0,0,0,0,0,0,0,0],"sum_hessian":[2.4048496E4,9.404292E1,2.3954453E4,3.588619E1,5.8156734E1,5.171833E1,2.3902734E4,3.451407E1,1.372119E0,1.7943095E0,5.6362427E1,4.2219048E0,4.7496426E1,8.127167E0,2.6386904E1,1.7943095E0,5.4568115E1,1.372119E0,2.8497856E0,2.0054047E0,6.121762E0,4.9396282E1,5.171833E0,1.5832142E0,3.588619E0],"tree_param":{"num_deleted":"0","num_feature":"30","num_nodes":"25","size_leaf_vector":"1"}},{"base_weights":[-1.0803877E0,6.6114104E-1,-1.0925542E0,1.4827738E0,-8.6546695E-1,-6.480548E-1,-3.2807526E-1,1.5836439E0,-3.7265912E-1,-1.0475055E0,1.3939668E-1,1.2620451E0,-1.0424566E0,1.6225075E0,-1.8724656E-1,2.5006214E-1,-2.841146E-1,-2.8335878E-1,-3.2641602E-1,-4.8038286E-1,3.8740587E-1,-5.2410647E-2,1.7396934E0,-3.2022783E-1,-1.1638396E-1,1.9150034E0,1.2994576E0,7.2761595E-2,-1.8585275E-1,2.1125479E-1,-2.6941726E-1,2.2683625E0,-8.7520495E-2,5.892069E-1,8.710611E-2,-2.1361548E-1,4.2481285E-1,7.920011E-2,8.218956E-1],"categories":[],"categories_nodes":[],"categories_segments":[],"categories_sizes":[],"default_left":[0,0,0,0,0,0,0,0,0,0,0,0,0,0,0,0,0,0,0,0,0,0,0,0,0,0,0,0,0,0,0,0,0,0,0,0,0,0,0],"id":1,"left_children":[1,3,5,7,9,11,-1,13,15,17,19,21,23,25,-1,-1,-1,27,-1,29,-1,-1,31,-1,-1,33,35,-1,-1,-1,-1,37,-1,-1,-1,-1,-1,-1,-1],"loss_changes":[3.9109766E2,1.6239006E2,7.6679688E0,1.6287079E1,8.4823265E0,3.5029266E1,0E0,7.854248E0,4.3463697E0,8.908005E-1,6.240731E0,5.870431E0,2.0104218E-1,4.941757E0,0E0,0E0,0E0,7.3402137E-1,0E0,3.525381E0,0E0,0E0,7.297514E0,0E0,0E0,2.5482483E0,1.0500587E1,0E0,0E0,0E0,0E0,4.015789E0,0E0,0E0,0E0,0E0,0E0,0E0,0E0],"parents":[2147483647,0,0,1,1,2,2,3,3,4,4,5,5,7,7,8,8,9,9,10,10,11,11,12,12,13,13,17,17,19,19,22,22,25,25,26,26,31,31],"right_children":[2,4,6,8,10,12,-1,14,16,18,20,22,24,26,-1,-1,-1,28,-1,30,-1,-1,32,-1,-1,34,36,-1,-1,-1,-1,38,-1,-1,-1,-1,-1,-1,-1],"split_conditions":[-3.6156354E0,3.9232463E-1,-1.6137081E0,4.7686544E-1,3.5906222E0,-2.2751307E0,-3.2807526E-1,1.7391944E0,-6.3204527E-1,6.572287E-1,-1.8020466E-1,-5.3551173E-1,2.8452396E0,5.2855957E-1,-1.8724656E-1,2.5006214E-1,-2.841146E-1,-7.540502E-1,-3.2641602E-1,-2.190045E0,3.8740587E-1,-5.2410647E-2,1.2616868E0,-3.2022783E-1,-1.1638396E-1,2.1491885E0,1.7272661E0,7.2761595E-2,-1.8585275E-1,2.1125479E-1,-2.6941726E-1,8.9107625E-2,-8.7520495E-2,5.892069E-1,8.710611E-2,-2.1361548E-1,4.2481285E-1,7.920011E-2,8.218956E-1],"split_indices":[14,7,17,9,4,12,0,16,20,7,21,20,29,27,0,0,0,10,0,12,0,0,13,0,0,18,4,0,0,0,0,22,0,0,0,0,0,0,0],"split_type":[0,0,0,0,0,0,0,0,0,0,0,0,0,0,0,0,0,0,0,0,0,0,0,0,0,0,0,0,0,0,0,0,0,0,0,0,0,0,0],"sum_hessian":[1.8423055E4,1.2744244E2,1.8295611E4,8.28699E1,4.4572536E1,4.375181E1,1.825186E4,7.873592E1,4.1339793E0,3.770039E1,6.8721437E0,7.1113634E0,3.664044E1,7.7634445E1,1.101482E0,1.1880132E0,2.9459658E0,2.3022084E0,3.5398182E1,4.8472137E0,2.02493E0,1.9325562E0,5.1788073E0,3.4686287E1,1.954157E0,3.8157745E1,3.94767E1,1.0063248E0,1.2958838E0,1.0847626E0,3.7624512E0,4.0168166E0,1.1619906E0,3.6837383E1,1.320361E0,1.8828752E0,3.7593822E1,1.0616895E0,2.9551272E0],"tree_param":{"num_deleted":"0","num_feature":"30","num_nodes":"39","size_leaf_vector":"1"}},{"base_weights":[-1.0513645E0,5.2534693E-1,-1.064171E0,1.1470761E0,-7.9698133E-1,-5.8694893E-1,-3.1961092E-1,-6.662663E-2,1.2567548E0,5.0948554E-1,-9.360434E-1,9.7764766E-1,-9.87609E-1,5.703538E-1,-3.0169943E-1,1.2886906E0,-1.7270816E-2,-1.3570838E-1,3.235534E-1,-2.8907066E-2,-3.122297E-1,1.3045869E0,-1.07841305E-1,-1.01126E0,-4.946799E-2,-1.6978934E-1,3.5513815E-1,1.475674E0,9.678093E-1,2.6878193E-1,-2.2974405E-1,1.6127456E0,-6.1302554E-2,-3.123759E-1,-7.998639E-2,4.5464113E-1,9.109644E-3,7.276378E-2,3.4874243E-1,2.8920704E-2,5.894815E-1],"categories":[],"categories_nodes":[],"categories_segments":[],"categories_sizes":[],"default_left":[0,0,0,0,0,0,0,0,0,0,0,0,0,0,0,0,0,0,0,0,0,0,0,0,0,0,0,0,0,0,0,0,0,0,0,0,0,0,0,0,0],"id":2,"left_children":[1,3,5,7,9,11,-1,13,15,17,19,21,23,25,-1,27,-1,-1,-1,29,-1,31,-1,33,-1,-1,-1,35,37,-1,-1,39,-1,-1,-1,-1,-1,-1,-1,-1,-1],"loss_changes":[2.8266797E2,9.400701E1,7.303711E0,1.0391052E1,7.1633244E0,2.4129932E1,0E0,4.980088E0,3.0569992E0,2.7800775E0,3.1632729E0,3.981985E0,4.153614E-1,4.1744833E0,0E0,2.7370224E0,0E0,0E0,0E0,3.7581491E0,0E0,3.4325418E0,0E0,3.6750603E-1,0E0,0E0,0E0,2.3672028E0,3.736782E0,0E0,0E0,2.8300543E0,0E0,0E0,0E0,0E0,0E0,0E0,0E0,0E0,0E0],"parents":[2147483647,0,0,1,1,2,2,3,3,4,4,5,5,7,7,8,8,9,9,10,10,11,11,12,12,13,13,15,15,19,19,21,21,23,23,27,27,28,28,31,31],"right_children":[2,4,6,8,10,12,-1,14,16,18,20,22,24,26,-1,28,-1,-1,-1,30,-1,32,-1,34,-1,-1,-1,36,38,-1,-1,40,-1,-1,-1,-1,-1,-1,-1,-1,-1],"split_conditions":[-3.6156354E0,3.9232463E-1,-1.6137081E0,1.1841671E0,-2.2186575E0,-1.4045628E0,-3.1961092E-1,4.2036468E-1,1.3500417E0,-5.226741E-1,-1.8014737E0,7.195343E-1,8.0217E-1,4.4780057E-3,-3.0169943E-1,5.3917634E-1,-1.7270816E-2,-1.3570838E-1,3.235534E-1,-5.4889935E-1,-3.122297E-1,-2.5575209E0,-1.07841305E-1,2.8452396E0,-4.946799E-2,-1.6978934E-1,3.5513815E-1,1.3842245E0,-2.7264467E-1,2.6878193E-1,-2.2974405E-1,-1.5390221E0,-6.1302554E-2,-3.123759E-1,-7.998639E-2,4.5464113E-1,9.109644E-3,7.276378E-2,3.4874243E-1,2.8920704E-2,5.894815E-1],"split_indices":[14,7,17,4,10,10,0,27,16,15,9,27,26,21,0,20,0,0,0,13,0,12,0,29,0,0,0,0,26,0,0,6,0,0,0,0,0,0,0,0,0],"split_type":[0,0,0,0,0,0,0,0,0,0,0,0,0,0,0,0,0,0,0,0,0,0,0,0,0,0,0,0,0,0,0,0,0,0,0,0,0,0,0,0,0],"sum_hessian":[1.3970295E4,1.1223368E2,1.3858062E4,7.643037E1,3.5803314E1,3.5952393E1,1.3822108E4,6.366901E0,7.006347E1,3.1880782E0,3.261524E1,7.0360794E0,2.8916315E1,4.02752E0,2.3393805E0,6.842048E1,1.6429914E0,1.2612175E0,1.9268606E0,3.507574E0,2.9107662E1,5.6732435E0,1.3628362E0,2.7885506E1,1.0308098E0,1.439123E0,2.5883973E0,4.095589E1,2.7464586E1,1.4597356E0,2.0478384E0,4.6539874E0,1.0192559E0,2.6422897E1,1.462608E0,3.981115E1,1.1447394E0,6.287025E0,2.117756E1,1.1172888E0,3.5366988E0],"tree_param":{"num_deleted":"0","num_feature":"30","num_nodes":"41","size_leaf_vector":"1"}},{"base_weights":[-1.0298375E0,4.427253E-1,-1.0433857E0,9.51532E-1,-7.334081E-1,-5.32188E-1,-3.1343642E-1,1.285565E-1,1.0734248E0,5.4064184E-1,-8.8720524E-1,6.7392886E-1,-9.6534526E-1,6.5867764E-1,-3.224362E-1,1.394764E0,8.779622E-1,-1.08154975E-1,3.304209E-1,-2.357449E-1,-3.0615583E-1,-1.05162986E-1,9.0134096E-1,-3.010077E-1,-8.9553446E-2,1.0363698E0,-2.2794193E-1,4.3631643E-1,6.2265333E-2,1.5047887E-1,1.0813406E0,1.9419412E-1,-6.526246E-1,1.1769193E0,-1.4597399E-2,5.528624E-2,3.496439E-1,3.4847802E-1,-1.9250736E-1,3.4204668E-1,4.465987E-2,-2.083968E-2,-2.4043936E-1,4.315252E-1,6.785541E-2],"categories":[],"categories_nodes":[],"categories_segments":[],"categories_sizes":[],"default_left":[0,0,0,0,0,0,0,0,0,0,0,0,0,0,0,0,0,0,0,0,0,0,0,0,0,0,0,0,0,0,0,0,0,0,0,0,0,0,0,0,0,0,0,0,0],"id":3,"left_children":[1,3,5,7,9,11,-1,13,15,17,19,21,23,25,-1,27,29,-1,-1,31,-1,-1,33,-1,-1,35,-1,-1,-1,37,39,-1,41,43,-1,-1,-1,-1,-1,-1,-1,-1,-1,-1,-1],"loss_changes":[2.1065625E2,5.8596428E1,6.9277344E0,6.6804466E0,6.315132E0,1.6636555E1,0E0,7.026261E0,2.4853745E0,2.3320825E0,2.1001644E0,2.336857E0,2.8159714E-1,4.8032312E0,0E0,1.1592331E0,5.670397E0,0E0,0E0,2.586642E0,0E0,0E0,1.988955E0,0E0,0E0,4.829688E-1,0E0,0E0,0E0,8.575239E0,1.5112E0,0E0,3.3417845E-1,1.1064544E0,0E0,0E0,0E0,0E0,0E0,0E0,0E0,0E0,0E0,0E0,0E0],"parents":[2147483647,0,0,1,1,2,2,3,3,4,4,5,5,7,7,8,8,9,9,10,10,11,11,12,12,13,13,15,15,16,16,19,19,22,22,25,25,29,29,30,30,32,32,33,33],"right_children":[2,4,6,8,10,12,-1,14,16,18,20,22,24,26,-1,28,30,-1,-1,32,-1,-1,34,-1,-1,36,-1,-1,-1,38,40,-1,42,44,-1,-1,-1,-1,-1,-1,-1,-1,-1,-1,-1],"split_conditions":[-3.6156354E0,3.9232463E-1,-1.6137081E0,1.7272661E0,-2.5575209E0,-2.2751307E0,-3.1343642E-1,5.3917634E-1,6.673871E-1,-5.529266E-1,-1.5220747E0,-4.3555042E-1,2.8452396E0,1.7640601E0,-3.224362E-1,1.3500417E0,-2.6461473E-1,-1.08154975E-1,3.304209E-1,-1.5951565E-1,-3.0615583E-1,-1.05162986E-1,-1.1577305E0,-3.010077E-1,-8.9553446E-2,2.5673392E-1,-2.2794193E-1,4.3631643E-1,6.2265333E-2,-3.3360067E-1,4.151263E-1,1.9419412E-1,-2.8069916E-1,-1.7696148E0,-1.4597399E-2,5.528624E-2,3.496439E-1,3.4847802E-1,-1.9250736E-1,3.4204668E-1,4.465987E-2,-2.083968E-2,-2.4043936E-1,4.315252E-1,6.785541E-2],"split_indices":[14,7,17,4,12,12,0,20,8,8,19,23,29,18,0,16,26,0,0,20,0,0,14,0,0,21,0,0,0,26,18,0,0,10,0,0,0,0,0,0,0,0,0,0,0],"split_type":[0,0,0,0,0,0,0,0,0,0,0,0,0,0,0,0,0,0,0,0,0,0,0,0,0,0,0,0,0,0,0,0,0,0,0,0,0,0,0,0,0,0,0,0,0],"sum_hessian":[1.0534745E4,9.575166E1,1.0438993E4,6.697053E1,2.8781132E1,2.9598793E1,1.0409395E4,8.904599E0,5.806593E1,2.8291616E0,2.595197E1,7.674226E0,2.1924566E1,6.4956384E0,2.4089613E0,1.964083E1,3.84251E1,1.2221798E0,1.6069819E0,4.8788843E0,2.1073086E1,1.2957115E0,6.3785143E0,2.026469E1,1.6598753E0,5.342501E0,1.1531373E0,1.8487318E1,1.1535116E0,8.775411E0,2.9649689E1,1.3873535E0,3.491531E0,4.759114E0,1.6194005E0,1.0223953E0,4.3201056E0,3.6501143E0,5.1252966E0,2.7681013E1,1.9686749E0,1.008177E0,2.483354E0,3.3301954E0,1.4289186E0],"tree_param":{"num_deleted":"0","num_feature":"30","num_nodes":"45","size_leaf_vector":"1"}},{"base_weights":[-1.0130543E0,3.8521832E-1,-1.0274906E0,8.2028216E-1,-6.693573E-1,-4.7785452E-1,-1.0291517E0,8.89251E-2,9.314945E-1,-9.3845016E-1,2.150468E-1,5.9221673E-1,-9.036202E-1,-3.095578E-1,-9.6926147E-1,5.5324113E-1,-2.8911614E-1,1.0838562E0,4.9450904E-1,-2.5739156E-2,-3.02053E-1,-1.7587574E-1,7.950698E-1,9.954378E-1,-1.9966139E-1,-3.779679E-1,-2.9316342E-1,-9.9824256E-1,-4.2903048E-1,9.465884E-1,-1.7939192E-1,1.1423507E0,-2.444313E-2,-6.012933E-2,9.929301E-1,3.9134598E-1,-3.3782095E-2,3.7351128E-1,-7.9406705E-3,1.2893213E-1,-2.2694199E-1,9.222813E-2,-2.2315517E-1,-3.054562E-1,-1.0067744E0,-8.4852004E-1,1.1029279E0,3.134769E-1,8.172516E-2,3.5822582E-1,1.0091376E-1,3.204606E-1,-1.7708236E-1,4.602885E-2,3.301822E-1,-2.422601E-1,2.9439262E-1,-3.0291376E-1,-5.58592E-3,-2.9048392E-1,1.3668193E-1,8.1195945E-1,-1.2459177E-1],"categories":[],"categories_nodes":[],"categories_segments":[],"categories_sizes":[],"default_left":[0,0,0,0,0,0,0,0,0,0,0,0,0,0,0,0,0,0,0,0,0,0,0,0,0,0,0,0,0,0,0,0,0,0,0,0,0,0,0,0,0,0,0,0,0,0,0,0,0,0,0,0,0,0,0,0,0,0,0,0,0,0,0],"id":4,"left_children":[1,3,5,7,9,11,13,15,17,19,21,23,25,-1,27,29,-1,31,33,-1,-1,-1,35,37,39,41,-1,43,45,47,-1,49,-1,51,53,-1,-1,-1,-1,-1,-1,-1,-1,55,57,59,61,-1,-1,-1,-1,-1,-1,-1,-1,-1,-1,-1,-1,-1,-1,-1,-1],"loss_changes":[1.6019385E2,3.799849E1,6.6621094E0,4.65366E0,6.0062075E0,1.21419525E1,2.6660156E-1,4.8303146E0,2.8224373E0,1.0149822E0,3.488652E0,2.706993E0,3.509493E-1,0E0,5.119812E0,3.6163511E0,0E0,2.5853615E0,4.1730804E0,0E0,0E0,0E0,2.0874977E0,1.4032001E0,1.5459313E0,1.2110794E0,0E0,1.6759033E0,1.3657436E1,7.385349E-2,0E0,1.0527916E0,0E0,5.4073195E0,5.447211E-1,0E0,0E0,0E0,0E0,0E0,0E0,0E0,0E0,4.3573027E0,9.423218E-1,2.9565582E0,1.2542969E1,0E0,0E0,0E0,0E0,0E0,0E0,0E0,0E0,0E0,0E0,0E0,0E0,0E0,0E0,0E0,0E0],"parents":[2147483647,0,0,1,1,2,2,3,3,4,4,5,5,6,6,7,7,8,8,9,9,10,10,11,11,12,12,14,14,15,15,17,17,18,18,22,22,23,23,24,24,25,25,27,27,28,28,29,29,31,31,33,33,34,34,43,43,44,44,45,45,46,46],"right_children":[2,4,6,8,10,12,14,16,18,20,22,24,26,-1,28,30,-1,32,34,-1,-1,-1,36,38,40,42,-1,44,46,48,-1,50,-1,52,54,-1,-1,-1,-1,-1,-1,-1,-1,56,58,60,62,-1,-1,-1,-1,-1,-1,-1,-1,-1,-1,-1,-1,-1,-1,-1,-1],"split_conditions":[-3.6156354E0,3.9232463E-1,-1.6137081E0,1.7272661E0,3.5906222E0,-1.4045628E0,2.6378825E0,5.3917634E-1,4.2310384E-1,6.572287E-1,1.6367599E0,6.673871E-1,-5.213187E-1,-3.095578E-1,1.4601418E0,4.216628E-1,-2.8911614E-1,1.3500417E0,-1.0934276E-1,-2.5739156E-2,-3.02053E-1,-1.7587574E-1,2.7120953E0,6.342979E-1,-9.3514186E-1,-4.381865E-1,-2.9316342E-1,-2.187939E0,8.369515E-1,3.0825686E-1,-1.7939192E-1,1.6361166E0,-2.444313E-2,4.9374017E-1,2.5655591E0,3.9134598E-1,-3.3782095E-2,3.7351128E-1,-7.9406705E-3,1.2893213E-1,-2.2694199E-1,9.222813E-2,-2.2315517E-1,-1.1636379E-1,1.4144281E0,1.2022994E0,-3.2452312E-1,3.134769E-1,8.172516E-2,3.5822582E-1,1.0091376E-1,3.204606E-1,-1.7708236E-1,4.602885E-2,3.301822E-1,-2.422601E-1,2.9439262E-1,-3.0291376E-1,-5.58592E-3,-2.9048392E-1,1.3668193E-1,8.1195945E-1,-1.2459177E-1],"split_indices":[14,7,17,4,4,10,4,20,28,7,11,8,5,0,17,5,0,16,26,0,0,0,11,29,13,27,0,14,1,28,0,13,0,27,2,0,0,0,0,0,0,0,0,21,26,20,29,0,0,0,0,0,0,0,0,0,0,0,0,0,0,0,0],"split_type":[0,0,0,0,0,0,0,0,0,0,0,0,0,0,0,0,0,0,0,0,0,0,0,0,0,0,0,0,0,0,0,0,0,0,0,0,0,0,0,0,0,0,0,0,0,0,0,0,0,0,0,0,0,0,0,0,0,0,0,0,0,0,0],"sum_hessian":[7.9153203E3,8.062336E1,7.8346973E3,5.72338E1,2.3389565E1,2.4475908E1,7.810221E3,7.791928E0,4.944187E1,1.788629E1,5.503275E0,6.855394E0,1.7620516E1,7.4568604E3,3.5336093E2,5.736165E0,2.0557625E0,3.556224E1,1.387963E1,1.4955722E0,1.6390717E1,2.3063385E0,3.1969366E0,4.372086E0,2.4833076E0,2.9174676E0,1.4703048E1,3.3456512E2,1.8795794E1,4.4078407E0,1.3283246E0,3.388128E1,1.6809642E0,6.985543E0,6.894087E0,1.7676855E0,1.4292511E0,3.3383496E0,1.0337363E0,1.272731E0,1.2105767E0,1.0709884E0,1.846479E0,4.517888E0,3.3004724E2,1.510561E1,3.6901834E0,3.3668199E0,1.0410209E0,3.138511E1,2.4961662E0,1.908556E0,5.0769873E0,1.0594022E0,5.8346844E0,3.5177448E0,1.0001432E0,3.290471E2,1.0001432E0,1.4070979E1,1.0346308E0,1.4139955E0,2.276188E0],"tree_param":{"num_deleted":"0","num_feature":"30","num_nodes":"63","size_leaf_vector":"1"}},{"base_weights":[-9.9907357E-1,3.3725652E-1,-1.0146894E0,7.264569E-1,-6.023682E-1,-4.3046284E-1,-1.0166609E0,-1.869828E-1,7.8699243E-1,2.0342365E-1,-9.35958E-1,4.5239595E-1,-8.934637E-1,-9.1485554E-1,-1.0193284E0,1.412085E-1,-1.7883831E-1,1.0435958E0,4.752572E-1,7.5786996E-1,-2.1195935E-1,-2.9310986E-1,-5.555513E-2,-1.2252258E-1,7.9517907E-1,-3.7528817E-2,-2.8682882E-1,-9.586931E-1,-3.8137773E-1,-3.0605176E-1,-8.01417E-1,1.1375664E0,1.3318345E-1,3.0813652E-1,1.6965637E-1,3.4229055E-1,-1.1202404E-2,1.00244686E-1,-1.9619685E-1,3.5583872E-1,-6.1910573E-2,-9.8442966E-1,-2.5003824E-1,-8.156145E-1,4.1835022E-1,-2.9500493E-1,4.029215E-1,3.5154048E-1,6.5360926E-2,-1.7144132E-1,2.0867027E-1,-6.249592E-2,3.0193624E-1,-1.982396E-2,-2.973737E-1,2.8986096E-1,-2.4586748E-1,-2.7290708E-1,-1.0143192E-2,-2.1310745E-1,4.0657946E-1,-2.091992E-1,5.524366E-1],"categories":[],"categories_nodes":[],"categories_segments":[],"categories_sizes":[],"default_left":[0,0,0,0,0,0,0,0,0,0,0,0,0,0,0,0,0,0,0,0,0,0,0,0,0,0,0,0,0,0,0,0,0,0,0,0,0,0,0,0,0,0,0,0,0,0,0,0,0,0,0,0,0,0,0,0,0,0,0,0,0,0,0],"id":5,"left_children":[1,3,5,7,9,11,13,15,17,19,21,23,25,27,29,-1,-1,31,33,35,-1,-1,-1,37,39,-1,-1,41,43,-1,45,47,49,-1,51,-1,-1,-1,-1,-1,-1,53,55,57,59,-1,61,-1,-1,-1,-1,-1,-1,-1,-1,-1,-1,-1,-1,-1,-1,-1,-1],"loss_changes":[1.2423047E2,2.5789505E1,6.3217773E0,2.8827915E0,5.7952304E0,9.180644E0,6.5478516E-1,1.3254304E0,3.2308617E0,4.029898E0,2.793169E-1,1.6838939E0,5.74378E-1,3.3543854E0,2.290039E-1,0E0,0E0,1.963211E0,3.683022E0,1.5007329E0,0E0,0E0,0E0,1.158631E0,2.2717638E0,0E0,0E0,2.4226532E0,5.112439E0,0E0,6.2285748E0,4.4599724E-1,1.7628137E0,0E0,5.244341E0,0E0,0E0,0E0,0E0,0E0,0E0,8.1622314E-1,5.272446E0,6.490798E-1,6.7745967E0,0E0,7.935996E0,0E0,0E0,0E0,0E0,0E0,0E0,0E0,0E0,0E0,0E0,0E0,0E0,0E0,0E0,0E0,0E0],"parents":[2147483647,0,0,1,1,2,2,3,3,4,4,5,5,6,6,7,7,8,8,9,9,10,10,11,11,12,12,13,13,14,14,17,17,18,18,19,19,23,23,24,24,27,27,28,28,30,30,31,31,32,32,34,34,41,41,42,42,43,43,44,44,46,46],"right_children":[2,4,6,8,10,12,14,16,18,20,22,24,26,28,30,-1,-1,32,34,36,-1,-1,-1,38,40,-1,-1,42,44,-1,46,48,50,-1,52,-1,-1,-1,-1,-1,-1,54,56,58,60,-1,62,-1,-1,-1,-1,-1,-1,-1,-1,-1,-1,-1,-1,-1,-1,-1,-1],"split_conditions":[-3.6156354E0,-1.7696148E0,-1.6137081E0,1.0025271E0,-9.280851E-2,-2.2751307E0,-1.7859976E0,-1.0190692E0,2.8178203E-1,1.0663408E0,6.086479E-1,1.7870092E0,-1.5382391E0,2.6378825E0,2.1755762E0,1.412085E-1,-1.7883831E-1,1.6361166E0,2.9143575E-1,-1.4160796E0,-2.1195935E-1,-2.9310986E-1,-5.555513E-2,-1.2580018E0,1.7813846E-1,-3.7528817E-2,-2.8682882E-1,7.182577E-1,-1.66991E-1,-3.0605176E-1,2.4474049E0,8.4391195E-1,6.8335176E-1,3.0813652E-1,1.6930159E0,3.4229055E-1,-1.1202404E-2,1.00244686E-1,-1.9619685E-1,3.5583872E-1,-6.1910573E-2,-1.3045027E0,-1.4045628E0,1.5786834E0,-5.010276E-1,-2.9500493E-1,5.302642E-2,3.5154048E-1,6.5360926E-2,-1.7144132E-1,2.0867027E-1,-6.249592E-2,3.0193624E-1,-1.982396E-2,-2.973737E-1,2.8986096E-1,-2.4586748E-1,-2.7290708E-1,-1.0143192E-2,-2.1310745E-1,4.0657946E-1,-2.091992E-1,5.524366E-1],"split_indices":[14,10,17,11,20,12,14,13,28,7,24,11,15,4,17,0,0,13,19,12,0,0,0,9,28,0,0,29,21,0,4,6,8,0,21,0,0,0,0,0,0,22,10,11,12,0,28,0,0,0,0,0,0,0,0,0,0,0,0,0,0,0,0],"split_type":[0,0,0,0,0,0,0,0,0,0,0,0,0,0,0,0,0,0,0,0,0,0,0,0,0,0,0,0,0,0,0,0,0,0,0,0,0,0,0,0,0,0,0,0,0,0,0,0,0,0,0,0,0,0,0,0,0,0,0,0,0,0,0],"sum_hessian":[5.935742E3,6.8323906E1,5.867418E3,4.8472897E1,1.985101E1,2.0470669E1,5.8469473E3,2.8829153E0,4.558998E1,5.926251E0,1.3924759E1,7.0501723E0,1.3420497E1,1.5806816E2,5.6888794E3,1.0479529E0,1.8349622E0,2.3718508E1,2.1871475E1,3.7863295E0,2.1399214E0,1.291672E1,1.0080392E0,2.8734183E0,4.176754E0,1.2374078E0,1.2183089E1,1.4532898E2,1.2739191E1,5.6632607E3,2.5618591E1,2.127323E1,2.4452784E0,6.953541E0,1.4917934E1,2.2618628E0,1.5244666E0,1.7451448E0,1.1282735E0,2.8715575E0,1.3051966E0,1.3986044E2,5.468538E0,8.243348E0,4.4958434E0,2.2415846E1,3.2027445E0,2.0245483E1,1.0277448E0,1.0781825E0,1.367096E0,1.07935915E1,4.124343E0,1.1091846E0,1.3875125E2,1.5219045E0,3.9466336E0,7.2119446E0,1.0314033E0,2.148881E0,2.3469625E0,2.1066995E0,1.096045E0],"tree_param":{"num_deleted":"0","num_feature":"30","num_nodes":"63","size_leaf_vector":"1"}},{"base_weights":[-9.864056E-1,2.9394004E-1,-1.0036527E0,6.262035E-1,-5.6245273E-1,-3.8682348E-1,-1.0059708E0,6.8631476E-1,-3.4480366E-1,-8.7658465E-1,1.957557E-1,4.3089023E-1,-8.2101536E-1,-1.0106974E0,-9.052859E-1,8.6735797E-1,2.7270538E-1,7.671444E-2,-2.4015017E-1,-1.3164638E-2,-2.9049253E-1,5.2497E-1,-1.8020251E-1,-1.7441177E-1,7.8444684E-1,-3.2020845E-2,-8.892252E-1,-3.0361614E-1,-8.5458255E-1,-9.524301E-1,-2.7967906E-1,9.458452E-1,-4.488786E-2,-7.440043E-1,5.96999E-1,8.76256E-1,-8.454197E-2,-1.9869675E-1,1.18902184E-1,5.1367316E-2,2.8654E-1,-6.032725E-2,-2.8176573E-1,-8.984867E-1,1.2364168E-1,-1.8941054E-1,-9.6672624E-1,9.275094E-1,-7.784932E-1,3.0901277E-1,1.3247064E-2,-2.963815E-1,-1.1132969E-2,2.4797565E-1,-1.0783736E-1,3.3129084E-1,6.3762255E-2,7.6642353E-3,-2.8304762E-1,-2.2641687E-1,2.8743568E-1,-2.915265E-1,-2.0230565E-2,-2.052139E-1,6.509419E-1,5.4104283E-2,-2.7980885E-1],"categories":[],"categories_nodes":[],"categories_segments":[],"categories_sizes":[],"default_left":[0,0,0,0,0,0,0,0,0,0,0,0,0,0,0,0,0,0,0,0,0,0,0,0,0,0,0,0,0,0,0,0,0,0,0,0,0,0,0,0,0,0,0,0,0,0,0,0,0,0,0,0,0,0,0,0,0,0,0,0,0,0,0,0,0,0,0],"id":6,"left_children":[1,3,5,7,9,11,13,15,17,19,21,23,25,27,29,31,33,-1,-1,-1,-1,35,-1,37,39,-1,41,-1,43,45,47,49,-1,51,53,55,-1,-1,-1,-1,-1,-1,-1,57,-1,59,61,63,65,-1,-1,-1,-1,-1,-1,-1,-1,-1,-1,-1,-1,-1,-1,-1,-1,-1,-1],"loss_changes":[9.853613E1,1.7398504E1,5.888672E0,2.7835026E0,4.2854967E0,6.7660933E0,1.1655273E0,2.8654041E0,1.0829527E0,9.042349E-1,1.8563273E0,1.6176878E0,4.9660492E-1,1.8066406E-2,5.799469E0,2.4047737E0,5.083376E0,0E0,0E0,0E0,0E0,1.5766819E0,0E0,1.2008519E0,3.1271172E-1,0E0,1.8770695E-1,0E0,2.7244835E0,1.8985748E0,1.02531185E1,1.9633064E0,0E0,6.268418E-1,2.7614934E0,2.9686785E-1,0E0,0E0,0E0,0E0,0E0,0E0,0E0,1.7385864E0,0E0,3.806747E0,7.805176E-1,1.1663073E1,1.9046001E0,0E0,0E0,0E0,0E0,0E0,0E0,0E0,0E0,0E0,0E0,0E0,0E0,0E0,0E0,0E0,0E0,0E0,0E0],"parents":[2147483647,0,0,1,1,2,2,3,3,4,4,5,5,6,6,7,7,8,8,9,9,10,10,11,11,12,12,13,13,14,14,15,15,16,16,21,21,23,23,24,24,26,26,28,28,29,29,30,30,31,31,33,33,34,34,35,35,43,43,45,45,46,46,47,47,48,48],"right_children":[2,4,6,8,10,12,14,16,18,20,22,24,26,28,30,32,34,-1,-1,-1,-1,36,-1,38,40,-1,42,-1,44,46,48,50,-1,52,54,56,-1,-1,-1,-1,-1,-1,-1,58,-1,60,62,64,66,-1,-1,-1,-1,-1,-1,-1,-1,-1,-1,-1,-1,-1,-1,-1,-1,-1,-1],"split_conditions":[-3.6156354E0,3.9232463E-1,-1.6137081E0,4.7686544E-1,3.5906222E0,-2.456608E0,2.6378825E0,8.4155965E-1,6.493191E-1,6.572287E-1,1.8975968E0,-1.0209197E0,-1.5382391E0,2.4990346E0,1.4601418E0,1.8414979E0,-2.7264467E-1,7.671444E-2,-2.4015017E-1,-1.3164638E-2,-2.9049253E-1,8.347008E-2,-1.8020251E-1,-3.5669167E-2,-2.0073801E-1,-3.2020845E-2,-3.0454953E0,-3.0361614E-1,1.7192266E0,-2.187939E0,-1.3017312E-1,1.6361166E0,-4.488786E-2,1.7804013E0,-1.9204793E0,-3.4411377E-1,-8.454197E-2,-1.9869675E-1,1.18902184E-1,5.1367316E-2,2.8654E-1,-6.032725E-2,-2.8176573E-1,-1.5306481E0,1.2364168E-1,-1.0915778E-2,1.1034559E0,-7.066166E-1,-7.428863E-1,3.0901277E-1,1.3247064E-2,-2.963815E-1,-1.1132969E-2,2.4797565E-1,-1.0783736E-1,3.3129084E-1,6.3762255E-2,7.6642353E-3,-2.8304762E-1,-2.2641687E-1,2.8743568E-1,-2.915265E-1,-2.0230565E-2,-2.052139E-1,6.509419E-1,5.4104283E-2,-2.7980885E-1],"split_indices":[14,7,17,9,4,12,4,27,15,7,1,6,15,7,17,18,26,0,0,0,0,15,0,0,20,0,14,0,17,14,10,13,0,19,1,29,0,0,0,0,0,0,0,13,0,21,26,1,6,0,0,0,0,0,0,0,0,0,0,0,0,0,0,0,0,0,0],"split_type":[0,0,0,0,0,0,0,0,0,0,0,0,0,0,0,0,0,0,0,0,0,0,0,0,0,0,0,0,0,0,0,0,0,0,0,0,0,0,0,0,0,0,0,0,0,0,0,0,0,0,0,0,0,0,0,0,0,0,0,0,0,0,0,0,0,0,0],"sum_hessian":[4.44789E3,5.8906563E1,4.388984E3,4.2634148E1,1.6272415E1,1.7060617E1,4.371923E3,4.0424797E1,2.2093506E0,1.1395176E1,4.877239E0,5.919682E0,1.1140935E1,4.1672583E3,2.0466458E2,2.7354338E1,1.307046E1,1.1425475E0,1.066803E0,1.2773485E0,1.0117827E1,3.6919668E0,1.1852727E0,2.369575E0,3.550107E0,1.1947349E0,9.946199E0,4.1259277E3,4.1330513E1,1.8983653E2,1.4828044E1,2.5459421E1,1.8949164E0,2.8478353E0,1.0222625E1,2.5120518E0,1.1799151E0,1.1910027E0,1.1785724E0,1.2091529E0,2.340954E0,1.0138258E0,8.932374E0,4.022696E1,1.1035534E0,3.7534654E0,1.8608307E2,4.084251E0,1.07437935E1,2.3154926E1,2.3044965E0,1.8216481E0,1.0261872E0,8.353296E0,1.8693289E0,1.3755903E0,1.1364614E0,1.8883499E0,3.8338608E1,2.7439888E0,1.0094767E0,1.8496815E2,1.1149096E0,1.9735086E0,2.1107426E0,1.4649731E0,9.27882E0],"tree_param":{"num_deleted":"0","num_feature":"30","num_nodes":"67","size_leaf_vector":"1"}},{"base_weights":[-9.744789E-1,2.4239832E-1,-9.932782E-1,-5.6997675E-1,5.29413E-1,-3.4120342E-1,-9.9606454E-1,3.5774645E-1,-8.3883315E-1,6.280688E-1,-2.610259E-1,2.4624902E-1,-2.6881617E-1,-1.0028187E0,-8.777505E-1,2.3609155E-1,-1.19984716E-1,-4.7130268E-2,-2.8606832E-1,9.8725635E-1,4.1476226E-1,2.150482E-1,-2.1886568E-1,7.829685E-1,-2.6379794E-1,-1.0046445E0,-8.0322856E-1,-9.333811E-1,-2.1012703E-1,1.7423231E-2,3.20274E-1,1.3509005E-1,9.24188E-1,3.4257594E-1,-3.0938575E-2,-2.1170472E-1,1.5663926E-1,-8.522445E-1,-3.0204308E-1,-8.574168E-1,9.671172E-2,-1.7052361E-1,-9.489623E-1,4.1245225E-1,-5.3177357E-1,-6.5906204E-2,2.8235075E-1,3.0390805E-1,4.5123737E-2,1.4990468E-1,-9.13817E-2,2.201015E-1,-2.7905613E-1,1.0356953E-2,-2.7427724E-1,-2.1510364E-1,2.101031E-1,-2.879702E-1,-9.090026E-2,-2.7503747E-1,6.9668114E-2],"categories":[],"categories_nodes":[],"categories_segments":[],"categories_sizes":[],"default_left":[0,0,0,0,0,0,0,0,0,0,0,0,0,0,0,0,0,0,0,0,0,0,0,0,0,0,0,0,0,0,0,0,0,0,0,0,0,0,0,0,0,0,0,0,0,0,0,0,0,0,0,0,0,0,0,0,0,0,0,0,0],"id":7,"left_children":[1,3,5,7,9,11,13,15,17,19,21,23,-1,25,27,-1,-1,-1,-1,29,31,-1,-1,33,35,37,39,41,43,-1,-1,45,47,-1,-1,-1,49,51,-1,53,-1,55,57,-1,59,-1,-1,-1,-1,-1,-1,-1,-1,-1,-1,-1,-1,-1,-1,-1,-1],"loss_changes":[7.650098E1,1.2314383E1,5.625244E0,3.7750149E0,3.1731186E0,5.269618E0,1.7316895E0,1.5607793E0,7.184019E-1,2.2414846E0,2.808335E0,2.4809933E0,0E0,3.173828E-1,6.657501E0,0E0,0E0,0E0,0E0,8.460989E-1,3.213688E0,0E0,0E0,1.4855647E0,1.0409566E0,1.496582E-1,2.2863579E0,1.8594208E0,8.625004E0,0E0,0E0,4.867929E0,4.0676212E-1,0E0,0E0,0E0,6.877494E-1,6.775444E0,0E0,1.6393452E0,0E0,2.7022138E0,8.850708E-1,0E0,4.211399E0,0E0,0E0,0E0,0E0,0E0,0E0,0E0,0E0,0E0,0E0,0E0,0E0,0E0,0E0,0E0,0E0],"parents":[2147483647,0,0,1,1,2,2,3,3,4,4,5,5,6,6,7,7,8,8,9,9,10,10,11,11,13,13,14,14,19,19,20,20,23,23,24,24,25,25,26,26,27,27,28,28,31,31,32,32,36,36,37,37,39,39,41,41,42,42,44,44],"right_children":[2,4,6,8,10,12,14,16,18,20,22,24,-1,26,28,-1,-1,-1,-1,30,32,-1,-1,34,36,38,40,42,44,-1,-1,46,48,-1,-1,-1,50,52,-1,54,-1,56,58,-1,60,-1,-1,-1,-1,-1,-1,-1,-1,-1,-1,-1,-1,-1,-1,-1,-1],"split_conditions":[-3.6156354E0,1.7272661E0,-1.6137081E0,-1.5825396E0,1.0663408E0,-8.570009E-1,2.4474049E0,5.2855957E-1,-1.0623098E-1,-3.0077913E-1,-6.709025E-1,-5.226741E-1,-2.6881617E-1,2.4990346E0,1.4601418E0,2.3609155E-1,-1.19984716E-1,-4.7130268E-2,-2.8606832E-1,7.625693E-1,1.28753595E-2,2.150482E-1,-2.1886568E-1,7.437531E-2,2.6031852E-1,-9.853448E-1,1.7192266E0,-2.187939E0,2.8410146E0,1.7423231E-2,3.20274E-1,3.249609E-1,4.961782E-1,3.4257594E-1,-3.0938575E-2,-2.1170472E-1,-2.635484E0,-1.5605403E0,-3.0204308E-1,-1.5306481E0,9.671172E-2,4.4780057E-3,2.9137955E0,4.1245225E-1,8.369515E-1,-6.5906204E-2,2.8235075E-1,3.0390805E-1,4.5123737E-2,1.4990468E-1,-9.13817E-2,2.201015E-1,-2.7905613E-1,1.0356953E-2,-2.7427724E-1,-2.1510364E-1,2.101031E-1,-2.879702E-1,-9.090026E-2,-2.7503747E-1,6.9668114E-2],"split_indices":[14,4,17,7,7,12,4,27,20,24,0,15,0,7,17,0,0,0,0,11,29,0,0,28,22,20,17,14,4,0,0,24,28,0,0,0,14,13,0,13,0,21,10,0,1,0,0,0,0,0,0,0,0,0,0,0,0,0,0,0,0],"split_type":[0,0,0,0,0,0,0,0,0,0,0,0,0,0,0,0,0,0,0,0,0,0,0,0,0,0,0,0,0,0,0,0,0,0,0,0,0,0,0,0,0,0,0,0,0,0,0,0,0,0,0,0,0,0,0,0,0,0,0,0,0],"sum_hessian":[3.3325847E3,5.052018E1,3.2820645E3,1.2931784E1,3.7588394E1,1.4490082E1,3.2675745E3,2.8313224E0,1.0100462E1,3.3600132E1,3.9882624E0,7.308421E0,7.181661E0,3.0840405E3,1.8353389E2,1.7827675E0,1.0485549E0,1.7962388E0,8.304223E0,1.1167239E1,2.2432892E1,1.1202488E0,2.8680136E0,3.3003697E0,4.0080514E0,3.0520874E3,3.195302E1,1.6904956E2,1.4484326E1,1.0256484E0,1.0141591E1,1.5298999E1,7.1338935E0,2.1433911E0,1.1569787E0,1.6233952E0,2.3846562E0,4.8291924E1,3.0037957E3,3.0712717E1,1.2403029E0,3.62276E0,1.654268E2,1.8911214E0,1.25932045E1,1.1128503E1,4.170496E0,6.121833E0,1.0120604E0,1.3197676E0,1.0648885E0,1.8681062E0,4.6423817E1,1.8634936E0,2.8849224E1,2.3344867E0,1.2882733E0,1.6219429E2,3.2325203E0,8.240446E0,4.3527594E0],"tree_param":{"num_deleted":"0","num_feature":"30","num_nodes":"61","size_leaf_vector":"1"}},{"base_weights":[-9.614262E-1,2.1639535E-1,-9.827172E-1,4.7977468E-1,-4.8179007E-1,-3.0383232E-1,-9.8599064E-1,8.1467104E-1,2.4086124E-1,1.19766735E-1,-2.5327668E-1,3.580755E-1,-7.278158E-1,-7.7262044E-1,-9.9215406E-1,9.7711605E-1,-4.334481E-2,-1.15234286E-1,6.2528074E-1,-4.2569384E-1,6.2436086E-1,6.6816646E-1,-5.8734763E-2,-2.888124E-2,-2.6144007E-1,-8.2934487E-1,1.19256854E-1,-9.9406964E-1,-5.888285E-1,3.691146E-2,3.1547728E-1,-1.3740002E-1,1.1286067E-1,-5.6704605E-1,5.80717E-1,-2.6256078E-1,2.802613E-1,9.6887015E-3,-1.9090621E-1,-1.7253073E-3,2.6881066E-1,2.3907956E-1,5.7448562E-2,-9.107069E-1,-2.6141357E-1,-2.1766688E-1,3.317221E-1,-7.898324E-1,-2.9928595E-1,-2.745406E-1,3.791852E-1,-3.2012993E-1,2.1087521E-1,-4.6036475E-6,2.2863317E-1,1.6243151E-1,-2.6220194E-1,-2.8239557E-1,-3.6835056E-2,-2.2144906E-1,1.4563125E-1,1.317944E-1,-2.611471E-1,3.8363647E-1,-1.9069752E-1],"categories":[],"categories_nodes":[],"categories_segments":[],"categories_sizes":[],"default_left":[0,0,0,0,0,0,0,0,0,0,0,0,0,0,0,0,0,0,0,0,0,0,0,0,0,0,0,0,0,0,0,0,0,0,0,0,0,0,0,0,0,0,0,0,0,0,0,0,0,0,0,0,0,0,0,0,0,0,0,0,0,0,0,0,0],"id":8,"left_children":[1,3,5,7,9,11,13,15,17,19,-1,21,23,25,27,29,31,33,35,37,39,41,-1,-1,-1,43,45,47,49,-1,-1,-1,-1,51,53,55,-1,-1,-1,-1,-1,-1,-1,57,59,-1,-1,61,-1,-1,63,-1,-1,-1,-1,-1,-1,-1,-1,-1,-1,-1,-1,-1,-1],"loss_changes":[6.2924072E1,8.546896E0,5.159424E0,2.4710603E0,2.910724E0,3.9743867E0,2.447998E0,1.9184523E0,2.9297795E0,1.8403127E0,0E0,1.1333271E0,6.778202E-1,3.799286E0,1.2473145E0,5.931959E-1,7.116409E-1,4.0024633E0,3.041357E0,3.4314233E-1,5.8325315E-1,9.0984344E-2,0E0,0E0,0E0,2.9454079E0,5.1759787E0,9.2285156E-1,4.663716E0,0E0,0E0,0E0,0E0,5.569592E0,5.3645897E-1,2.1506207E0,0E0,0E0,0E0,0E0,0E0,0E0,0E0,1.3281975E0,3.9316502E0,0E0,0E0,4.855053E0,0E0,0E0,4.603795E0,0E0,0E0,0E0,0E0,0E0,0E0,0E0,0E0,0E0,0E0,0E0,0E0,0E0,0E0],"parents":[2147483647,0,0,1,1,2,2,3,3,4,4,5,5,6,6,7,7,8,8,9,9,11,11,12,12,13,13,14,14,15,15,16,16,17,17,18,18,19,19,20,20,21,21,25,25,26,26,27,27,28,28,33,33,34,34,35,35,43,43,44,44,47,47,50,50],"right_children":[2,4,6,8,10,12,14,16,18,20,-1,22,24,26,28,30,32,34,36,38,40,42,-1,-1,-1,44,46,48,50,-1,-1,-1,-1,52,54,56,-1,-1,-1,-1,-1,-1,-1,58,60,-1,-1,62,-1,-1,64,-1,-1,-1,-1,-1,-1,-1,-1,-1,-1,-1,-1,-1,-1],"split_conditions":[-3.6156354E0,-1.7696148E0,-1.6137081E0,1.7813846E-1,-9.280851E-2,-1.4045628E0,-1.7859976E0,6.572287E-1,-1.0934276E-1,-1.7334133E-1,-2.5327668E-1,6.673871E-1,-5.213187E-1,7.182577E-1,2.1755762E0,-8.604655E-1,1.0934955E-1,-2.020569E0,2.8410146E0,9.437948E-1,3.381404E0,-1.3083262E0,-5.8734763E-2,-2.888124E-2,-2.6144007E-1,2.6378825E0,-9.803277E-1,-9.853448E-1,2.4474049E0,3.691146E-2,3.1547728E-1,-1.3740002E-1,1.1286067E-1,1.28753595E-2,-2.5318692E0,5.263087E-1,2.802613E-1,9.6887015E-3,-1.9090621E-1,-1.7253073E-3,2.6881066E-1,2.3907956E-1,5.7448562E-2,4.8387098E-1,-2.8549203E-1,-2.1766688E-1,3.317221E-1,-1.5605403E0,-2.9928595E-1,-2.745406E-1,1.3398693E0,-3.2012993E-1,2.1087521E-1,-4.6036475E-6,2.2863317E-1,1.6243151E-1,-2.6220194E-1,-2.8239557E-1,-3.6835056E-2,-2.2144906E-1,1.4563125E-1,1.317944E-1,-2.611471E-1,3.8363647E-1,-1.9069752E-1],"split_indices":[14,10,17,28,20,10,14,7,26,21,0,8,5,29,17,24,28,6,4,16,4,9,0,0,0,4,1,20,4,0,0,0,0,29,9,19,0,0,0,0,0,0,0,23,12,0,0,13,0,0,2,0,0,0,0,0,0,0,0,0,0,0,0,0,0],"split_type":[0,0,0,0,0,0,0,0,0,0,0,0,0,0,0,0,0,0,0,0,0,0,0,0,0,0,0,0,0,0,0,0,0,0,0,0,0,0,0,0,0,0,0,0,0,0,0,0,0,0,0,0,0,0,0,0,0,0,0,0,0,0,0,0,0],"sum_hessian":[2.499743E3,4.4221893E1,2.455521E3,3.2336346E1,1.1885546E1,1.2233325E1,2.4432876E3,1.2460279E1,1.9876066E1,4.720637E0,7.1649094E0,4.837165E0,7.39616E0,7.214256E1,2.371145E3,1.0360042E1,2.1002383E0,1.06816635E1,9.194403E0,2.343598E0,2.3770392E0,2.9686873E0,1.8684777E0,1.6800752E0,5.716085E0,6.78945E1,4.248059E0,2.358479E3,1.26661215E1,1.0436409E0,9.316401E0,1.0101815E0,1.0900567E0,6.5891848E0,4.0924788E0,2.4121118E0,6.782291E0,1.0051111E0,1.3384867E0,1.0109986E0,1.3660405E0,1.8083268E0,1.1603605E0,5.8858818E1,9.035685E0,2.4308279E0,1.8172307E0,4.4114136E1,2.3143647E3,9.513762E0,3.1523595E0,4.8422627E0,1.746922E0,1.2120402E0,2.8804386E0,1.0914466E0,1.320665E0,5.6470207E1,2.388612E0,5.5222235E0,3.5134609E0,2.4427285E0,4.167141E1,1.5331883E0,1.619171E0],"tree_param":{"num_deleted":"0","num_feature":"30","num_nodes":"65","size_leaf_vector":"1"}},{"base_weights":[-9.4697374E-1,1.9570424E-1,-9.7086984E-1,-4.9942267E-1,4.2970255E-1,-6.6196597E-1,-9.815177E-1,2.773851E-1,-7.4352473E-1,5.2715355E-1,-1.4041473E-1,3.012496E-1,-7.359818E-1,-7.035043E-1,-9.871613E-1,1.9404805E-1,-7.539204E-2,-4.395141E-2,-2.6185036E-1,1.8855175E-1,8.511651E-1,3.265335E-1,-1.9426535E-1,-1.6557075E-1,3.287124E-1,-8.3221555E-1,-1.927082E-1,1.1109269E-1,-9.128569E-1,-9.896995E-1,-4.751997E-1,-2.6788834E-1,7.2413135E-1,9.377116E-1,-1.4912151E-2,2.0500971E-1,-4.2393163E-2,-2.0852102E-1,1.4751165E-1,-9.2100394E-1,-2.0483661E-2,-2.4824186E-1,3.483552E-1,-2.4627608E-1,1.1601571E0,-2.9226652E-1,-2.0046362E-1,-4.6438524E-1,-2.9717463E-1,-2.6266778E-1,4.1951376E-1,-1.9672553E-1,2.2848624E-1,3.6034524E-2,2.6763368E-1,2.5851382E-2,3.0271545E-1,-2.8883034E-1,1.3221472E-3,3.3673656E-1,-2.3202465E-1,-1.5438265E-1,3.4565172E-1,7.7287763E-1,-1.4881696E-1,1.4805906E-1,-1.912875E-1,8.76943E-2,-2.2258987E-1,3.7376466E-1,-1.9090219E-1],"categories":[],"categories_nodes":[],"categories_segments":[],"categories_sizes":[],"default_left":[0,0,0,0,0,0,0,0,0,0,0,0,0,0,0,0,0,0,0,0,0,0,0,0,0,0,0,0,0,0,0,0,0,0,0,0,0,0,0,0,0,0,0,0,0,0,0,0,0,0,0,0,0,0,0,0,0,0,0,0,0,0,0,0,0,0,0,0,0,0,0],"id":9,"left_children":[1,3,5,7,9,11,13,15,17,19,21,23,25,27,29,-1,-1,-1,-1,31,33,35,-1,37,-1,39,41,43,45,47,49,51,53,55,-1,-1,-1,-1,-1,57,59,-1,61,-1,63,-1,65,67,-1,-1,69,-1,-1,-1,-1,-1,-1,-1,-1,-1,-1,-1,-1,-1,-1,-1,-1,-1,-1,-1,-1],"loss_changes":[5.1502563E1,6.6112833E0,5.4052734E0,2.1719627E0,1.7385087E0,4.813839E0,2.0944824E0,7.889416E-1,5.0205326E-1,2.669629E0,1.4340981E0,2.149224E0,2.9820404E0,6.7258244E0,1.7900391E0,0E0,0E0,0E0,0E0,3.5916421E0,1.0521955E0,6.56294E-1,0E0,1.8072586E0,0E0,3.639511E0,3.8416154E0,9.5892105E0,1.160368E0,3.421631E-1,4.130497E0,3.7872052E0,5.690923E-1,6.3094044E-1,0E0,0E0,0E0,0E0,0E0,1.77174E0,6.055115E0,0E0,4.955411E0,0E0,1.1996618E1,0E0,1.4428214E0,1.2218292E0,0E0,0E0,4.216403E0,0E0,0E0,0E0,0E0,0E0,0E0,0E0,0E0,0E0,0E0,0E0,0E0,0E0,0E0,0E0,0E0,0E0,0E0,0E0,0E0],"parents":[2147483647,0,0,1,1,2,2,3,3,4,4,5,5,6,6,7,7,8,8,9,9,10,10,11,11,12,12,13,13,14,14,19,19,20,20,21,21,23,23,25,25,26,26,27,27,28,28,29,29,30,30,31,31,32,32,33,33,39,39,40,40,42,42,44,44,46,46,47,47,50,50],"right_children":[2,4,6,8,10,12,14,16,18,20,22,24,26,28,30,-1,-1,-1,-1,32,34,36,-1,38,-1,40,42,44,46,48,50,52,54,56,-1,-1,-1,-1,-1,58,60,-1,62,-1,64,-1,66,68,-1,-1,70,-1,-1,-1,-1,-1,-1,-1,-1,-1,-1,-1,-1,-1,-1,-1,-1,-1,-1,-1,-1],"split_conditions":[-3.6156354E0,1.7272661E0,-1.7859976E0,-1.5825396E0,1.7391944E0,-2.190045E0,-9.853448E-1,4.0073383E-1,-1.0623098E-1,-1.0934276E-1,-1.3300555E0,5.906768E-1,2.6378825E0,-5.290515E-1,2.1755762E0,1.9404805E-1,-7.539204E-2,-4.395141E-2,-2.6185036E-1,-2.020569E0,5.826919E-1,3.7036973E-1,-1.9426535E-1,2.8460836E-1,3.287124E-1,3.8241845E-1,4.0920153E-1,4.5374537E-1,-1.7444316E0,-4.9403014E0,2.4474049E0,1.6930159E0,-2.5337812E-1,2.8410146E0,-1.4912151E-2,2.0500971E-1,-4.2393163E-2,-2.0852102E-1,1.4751165E-1,1.5157312E0,-1.4045628E0,-2.4824186E-1,-1.6409154E0,-2.4627608E-1,-1.8090695E-1,-2.9226652E-1,1.0509973E-1,-3.453132E-1,-2.9717463E-1,-2.6266778E-1,-8.645241E-3,-1.9672553E-1,2.2848624E-1,3.6034524E-2,2.6763368E-1,2.5851382E-2,3.0271545E-1,-2.8883034E-1,1.3221472E-3,3.3673656E-1,-2.3202465E-1,-1.5438265E-1,3.4565172E-1,7.7287763E-1,-1.4881696E-1,1.4805906E-1,-1.912875E-1,8.76943E-2,-2.2258987E-1,3.7376466E-1,-1.9090219E-1],"split_indices":[14,4,14,7,16,12,20,27,20,26,6,21,4,12,17,0,0,0,0,6,16,0,0,22,0,29,1,4,1,7,4,21,23,4,0,0,0,0,0,0,10,0,19,0,13,0,12,29,0,0,8,0,0,0,0,0,0,0,0,0,0,0,0,0,0,0,0,0,0,0,0],"split_type":[0,0,0,0,0,0,0,0,0,0,0,0,0,0,0,0,0,0,0,0,0,0,0,0,0,0,0,0,0,0,0,0,0,0,0,0,0,0,0,0,0,0,0,0,0,0,0,0,0,0,0,0,0,0,0,0,0,0,0,0,0,0,0,0,0,0,0,0,0,0,0],"sum_hessian":[1.878201E3,3.832582E1,1.8398752E3,9.366611E0,2.8959211E1,6.3411854E1,1.7764634E3,2.2069783E0,7.1596317E0,2.4796131E1,4.1630816E0,4.30593E0,5.9105923E1,3.7844204E1,1.7386191E3,1.1676176E0,1.0393608E0,1.654379E0,5.505253E0,1.2898617E1,1.1897513E1,2.3528278E0,1.810254E0,3.2108445E0,1.0950856E0,4.975978E1,9.346142E0,7.8334336E0,3.0010769E1,1.7291135E3,9.505623E0,7.233654E0,5.664963E0,1.0817397E1,1.0801165E0,1.073433E0,1.2793946E0,1.746428E0,1.4644166E0,4.4732285E1,5.027496E0,4.057095E0,5.289047E0,4.263297E0,3.570137E0,2.7292305E1,2.718463E0,3.7844045E0,1.7253291E3,6.5818405E0,2.923783E0,5.5178647E0,1.715789E0,1.6058365E0,4.0591264E0,1.0068725E0,9.810525E0,4.2762062E1,1.9702234E0,1.8017254E0,3.2257702E0,2.7241938E0,2.564853E0,1.6251146E0,1.9450225E0,1.0007806E0,1.7176825E0,1.0014161E0,2.7829885E0,1.5391701E0,1.3846128E0],"tree_param":{"num_deleted":"0","num_feature":"30","num_nodes":"71","size_leaf_vector":"1"}},{"base_weights":[-9.3021894E-1,1.7617114E-1,-9.574326E-1,3.301752E-1,-6.739459E-1,-6.023707E-1,-9.7082865E-1,1.735069E-1,7.886846E-1,-2.4139512E-1,-1.0882222E-2,2.9031575E-1,-6.771395E-1,-9.8279834E-1,-7.676644E-1,-2.718296E-1,3.173394E-1,2.6639232E-1,2.4144936E-2,6.583214E-1,-1.4220858E-1,-7.8485066E-1,-1.7316265E-1,-6.923256E-1,-9.8850745E-1,2.6647943E-1,-8.3750266E-1,1.5430838E-1,-2.082733E-1,9.1842455E-1,3.239995E-2,3.3788338E-1,6.1421865E-3,-9.161139E-1,-1.3789204E-1,-6.726953E-1,3.7363166E-1,3.699081E-1,-8.2830787E-1,-9.9081224E-1,-6.6248226E-1,3.9131853E-1,-1.8044984E-1,-8.91202E-1,-3.0162668E-2,1.9623171E-1,-1.8204589E-1,3.112558E-1,5.4357797E-2,-2.1677323E-1,8.553746E-2,-2.9231697E-1,1.2584817E-2,-1.9628963E-1,2.1781114E-1,-6.110792E-3,-2.4365322E-1,3.1874424E-1,-1.9939934E-1,4.7149745E-1,-1.9552533E-1,4.8072573E-2,-2.7080083E-1,-1.9120379E-1,-2.9771268E-1,1.7819819E-1,-2.7228945E-1,-2.7535766E-1,5.833449E-2,2.5202695E-1,-2.271693E-1],"categories":[],"categories_nodes":[],"categories_segments":[],"categories_sizes":[],"default_left":[0,0,0,0,0,0,0,0,0,0,0,0,0,0,0,0,0,0,0,0,0,0,0,0,0,0,0,0,0,0,0,0,0,0,0,0,0,0,0,0,0,0,0,0,0,0,0,0,0,0,0,0,0,0,0,0,0,0,0,0,0,0,0,0,0,0,0,0,0,0,0],"id":10,"left_children":[1,3,5,7,9,11,13,15,17,-1,-1,19,21,23,25,27,29,-1,-1,31,-1,33,35,37,39,41,43,45,-1,47,49,-1,-1,51,53,55,57,59,61,63,65,-1,-1,67,69,-1,-1,-1,-1,-1,-1,-1,-1,-1,-1,-1,-1,-1,-1,-1,-1,-1,-1,-1,-1,-1,-1,-1,-1,-1,-1],"loss_changes":[4.2818726E1,4.7851496E0,5.9918213E0,2.0308359E0,4.4370794E-1,3.7277203E0,2.4816895E0,1.6090319E0,4.4909143E-1,0E0,0E0,1.6590182E0,2.5303097E0,1.3937988E0,5.900585E0,1.2487923E0,3.1269622E0,0E0,0E0,1.0667E0,0E0,3.2861977E0,2.9641476E0,4.2776318E0,2.6538086E-1,5.948033E0,3.1760063E0,1.9092066E0,0E0,3.2921505E-1,2.7895236E0,0E0,0E0,1.8961277E0,4.0241237E0,4.881959E-1,4.557375E0,5.7038827E0,1.9589958E0,3.942871E-2,4.121042E0,0E0,0E0,2.1821594E0,4.206334E0,0E0,0E0,0E0,0E0,0E0,0E0,0E0,0E0,0E0,0E0,0E0,0E0,0E0,0E0,0E0,0E0,0E0,0E0,0E0,0E0,0E0,0E0,0E0,0E0,0E0,0E0],"parents":[2147483647,0,0,1,1,2,2,3,3,4,4,5,5,6,6,7,7,8,8,11,11,12,12,13,13,14,14,15,15,16,16,19,19,21,21,22,22,23,23,24,24,25,25,26,26,27,27,29,29,30,30,33,33,34,34,35,35,36,36,37,37,38,38,39,39,40,40,43,43,44,44],"right_children":[2,4,6,8,10,12,14,16,18,-1,-1,20,22,24,26,28,30,-1,-1,32,-1,34,36,38,40,42,44,46,-1,48,50,-1,-1,52,54,56,58,60,62,64,66,-1,-1,68,70,-1,-1,-1,-1,-1,-1,-1,-1,-1,-1,-1,-1,-1,-1,-1,-1,-1,-1,-1,-1,-1,-1,-1,-1,-1,-1],"split_conditions":[-3.6156354E0,-3.675279E-1,-1.7859976E0,1.8258089E-1,-2.2819869E-1,-2.190045E0,2.4474049E0,2.0353515E0,1.5295769E0,-2.4139512E-1,-1.0882222E-2,3.0688253E-1,2.6378825E0,-9.853448E-1,-1.8798271E0,1.0964425E0,2.225984E0,2.6639232E-1,2.4144936E-2,-5.226741E-1,-1.4220858E-1,7.152729E-2,1.0130932E0,-1.4698106E0,2.4990346E0,3.1386743E0,1.5295769E0,5.171459E-1,-2.082733E-1,-3.9941266E-1,3.9091518E0,3.3788338E-1,6.1421865E-3,1.5157312E0,-3.685977E-1,-4.9462068E-1,-8.38476E-2,-4.8294455E-1,-1.5220747E0,-2.1597652E0,-5.366979E-1,3.9131853E-1,-1.8044984E-1,4.961782E-1,-1.668995E-1,1.9623171E-1,-1.8204589E-1,3.112558E-1,5.4357797E-2,-2.1677323E-1,8.553746E-2,-2.9231697E-1,1.2584817E-2,-1.9628963E-1,2.1781114E-1,-6.110792E-3,-2.4365322E-1,3.1874424E-1,-1.9939934E-1,4.7149745E-1,-1.9552533E-1,4.8072573E-2,-2.7080083E-1,-1.9120379E-1,-2.9771268E-1,1.7819819E-1,-2.7228945E-1,-2.7535766E-1,5.833449E-2,2.5202695E-1,-2.271693E-1],"split_indices":[14,10,14,23,21,12,4,4,17,0,0,7,4,20,8,5,2,0,0,15,0,29,18,13,7,4,17,20,0,6,4,0,0,0,1,2,20,6,19,19,26,0,0,28,6,0,0,0,0,0,0,0,0,0,0,0,0,0,0,0,0,0,0,0,0,0,0,0,0,0,0],"split_type":[0,0,0,0,0,0,0,0,0,0,0,0,0,0,0,0,0,0,0,0,0,0,0,0,0,0,0,0,0,0,0,0,0,0,0,0,0,0,0,0,0,0,0,0,0,0,0,0,0,0,0,0,0,0,0,0,0,0,0,0,0,0,0,0,0,0,0,0,0,0,0],"sum_hessian":[1.4155217E3,3.3850117E1,1.3816716E3,2.9176264E1,4.6738524E0,5.190476E1,1.3297668E3,2.277327E1,6.4029946E0,3.6614945E0,1.0123577E0,3.7886114E0,4.8116146E1,1.2521571E3,7.760969E1,5.342336E0,1.7430933E1,5.3930454E0,1.009949E0,2.6509707E0,1.1376407E0,3.9184273E1,8.931871E0,2.649306E1,1.2256641E3,4.7314954E0,7.28782E1,2.975405E0,2.3669314E0,4.890694E0,1.2540239E1,1.0874299E0,1.5635408E0,3.2229176E1,6.9551E0,4.5473313E0,4.38454E0,2.8113973E0,2.3681662E1,1.2150354E3,1.0628676E1,1.9258262E0,2.805669E0,6.82357E1,4.642494E0,1.8809094E0,1.0944954E0,3.859845E0,1.0308493E0,2.6787457E0,9.861493E0,3.036512E1,1.8640543E0,4.50495E0,2.4501498E0,1.0029233E0,3.544408E0,2.6218212E0,1.7627188E0,1.044473E0,1.7669243E0,1.5759771E0,2.2105684E1,7.14978E0,1.2078856E3,1.5028832E0,9.125793E0,6.675126E1,1.4844435E0,2.042413E0,2.600081E0],"tree_param":{"num_deleted":"0","num_feature":"30","num_nodes":"71","size_leaf_vector":"1"}},{"base_weights":[-9.0966827E-1,1.4251761E-1,-9.4083786E-1,3.2171687E-1,-4.425656E-1,-5.4043436E-1,-9.576899E-1,5.4438996E-1,2.2211298E-2,-2.4353388E-1,5.3303905E-2,2.669559E-1,-6.1582035E-1,-9.7748154E-1,-7.5724626E-1,8.7026876E-1,1.4748153E-1,-3.534794E-1,5.822471E-1,-1.1498625E-1,1.6216817E-1,-2.6013348E-1,2.4123104E-1,-8.348056E-1,-3.2388568E-1,-9.816318E-1,-5.417297E-1,1.3238332E-1,-8.215248E-1,2.898452E-1,5.1943872E-2,4.1011158E-1,-1.5025267E-1,-6.154021E-1,1.756296E-1,-4.0147305E-2,2.3902078E-1,4.747719E-2,-1.6417155E-1,-9.1299295E-1,1.1496093E-2,-4.4248477E-1,2.2429411E-1,-7.1027E-1,-2.9587847E-1,-7.8358376E-1,1.325442E-1,5.1491094E-1,-4.3873143E-1,-5.0871444E-1,-9.2875224E-1,2.1664955E-1,-8.068484E-2,-3.0558896E-1,8.197639E-2,-2.87161E-1,-6.405105E-2,1.2864813E-1,-2.0618944E-1,2.378814E-1,-2.583527E-1,-2.1668624E-3,-2.6415342E-1,2.045239E-1,-2.5190672E-1,1.5725845E-1,-2.1831182E-1,-2.8298375E-1,-3.6097614E-3],"categories":[],"categories_nodes":[],"categories_segments":[],"categories_sizes":[],"default_left":[0,0,0,0,0,0,0,0,0,0,0,0,0,0,0,0,0,0,0,0,0,0,0,0,0,0,0,0,0,0,0,0,0,0,0,0,0,0,0,0,0,0,0,0,0,0,0,0,0,0,0,0,0,0,0,0,0,0,0,0,0,0,0,0,0,0,0,0,0],"id":11,"left_children":[1,3,5,7,9,11,13,15,17,-1,19,21,23,25,27,29,31,33,35,-1,-1,37,-1,39,41,43,45,47,49,-1,-1,51,-1,53,-1,-1,-1,-1,-1,55,-1,57,-1,59,-1,61,-1,-1,63,65,67,-1,-1,-1,-1,-1,-1,-1,-1,-1,-1,-1,-1,-1,-1,-1,-1,-1,-1],"loss_changes":[3.5332886E1,3.4709942E0,6.5169067E0,1.647388E0,1.4831537E0,2.8668327E0,3.2233276E0,1.7121487E0,2.6576757E0,0E0,1.120874E0,1.4801736E0,2.3450117E0,1.1065063E0,5.496887E0,3.4136915E-1,1.5027858E0,2.2284985E0,8.8325167E-1,0E0,0E0,4.4953832E-1,0E0,1.5875254E0,2.7668252E0,4.2529297E-1,2.910049E0,7.2758913E0,2.4796753E0,0E0,0E0,1.4598516E0,0E0,2.5814567E0,0E0,0E0,0E0,0E0,0E0,4.4236565E-1,0E0,4.110109E0,0E0,4.90333E0,0E0,6.7176104E-1,0E0,0E0,3.311202E0,5.963881E0,8.4540176E-1,0E0,0E0,0E0,0E0,0E0,0E0,0E0,0E0,0E0,0E0,0E0,0E0,0E0,0E0,0E0,0E0,0E0,0E0],"parents":[2147483647,0,0,1,1,2,2,3,3,4,4,5,5,6,6,7,7,8,8,10,10,11,11,12,12,13,13,14,14,15,15,16,16,17,17,18,18,21,21,23,23,24,24,25,25,26,26,27,27,28,28,31,31,33,33,39,39,41,41,43,43,45,45,48,48,49,49,50,50],"right_children":[2,4,6,8,10,12,14,16,18,-1,20,22,24,26,28,30,32,34,36,-1,-1,38,-1,40,42,44,46,48,50,-1,-1,52,-1,54,-1,-1,-1,-1,-1,56,-1,58,-1,60,-1,62,-1,-1,64,66,68,-1,-1,-1,-1,-1,-1,-1,-1,-1,-1,-1,-1,-1,-1,-1,-1,-1,-1],"split_conditions":[-3.6156354E0,7.6753706E-1,-1.7859976E0,5.740715E-1,3.5906222E0,-2.190045E0,1.620582E0,-1.5825396E0,-1.0934276E-1,-2.4353388E-1,-1.8020466E-1,2.947066E-1,4.0920153E-1,2.4990346E0,-1.8798271E0,2.4358287E0,5.9579706E-1,1.6930159E0,3.381404E0,-1.1498625E-1,1.6216817E-1,-3.113448E-1,2.4123104E-1,1.5586554E0,7.9525596E-1,-9.853448E-1,6.8208414E-1,-8.2587683E-1,-7.3114365E-2,2.898452E-1,5.1943872E-2,1.6277748E0,-1.5025267E-1,-2.5199485E0,1.756296E-1,-4.0147305E-2,2.3902078E-1,4.747719E-2,-1.6417155E-1,1.1088619E0,1.1496093E-2,-8.197157E-1,2.2429411E-1,-3.4875154E-1,-2.9587847E-1,-7.2161436E-1,1.325442E-1,5.1491094E-1,-3.4875154E-1,-1.5220747E0,2.7279704E0,2.1664955E-1,-8.068484E-2,-3.0558896E-1,8.197639E-2,-2.87161E-1,-6.405105E-2,1.2864813E-1,-2.0618944E-1,2.378814E-1,-2.583527E-1,-2.1668624E-3,-2.6415342E-1,2.045239E-1,-2.5190672E-1,1.5725845E-1,-2.1831182E-1,-2.8298375E-1,-3.6097614E-3],"split_indices":[14,7,14,27,4,12,4,7,26,0,21,21,1,7,8,19,8,21,4,0,0,8,0,29,9,20,19,14,6,0,0,18,0,18,0,0,0,0,0,13,0,15,0,29,0,22,0,0,29,19,5,0,0,0,0,0,0,0,0,0,0,0,0,0,0,0,0,0,0],"split_type":[0,0,0,0,0,0,0,0,0,0,0,0,0,0,0,0,0,0,0,0,0,0,0,0,0,0,0,0,0,0,0,0,0,0,0,0,0,0,0,0,0,0,0,0,0,0,0,0,0,0,0,0,0,0,0,0,0,0,0,0,0,0,0,0,0,0,0,0,0],"sum_hessian":[1.0722572E3,3.0747496E1,1.0415096E3,2.3882805E1,6.8646903E0,4.339983E1,9.9810986E2,1.3229474E1,1.0653331E1,3.5696907E0,3.2949996E0,3.489185E0,3.9910645E1,9.048856E2,9.322426E1,6.60987E0,6.619604E0,6.5968027E0,4.056528E0,1.8503904E0,1.4446092E0,2.0213745E0,1.4678108E0,2.174202E1,1.8168627E1,8.951074E2,9.778187E0,6.210471E0,8.701379E1,5.4714217E0,1.1384485E0,4.9726543E0,1.6469494E0,5.4273295E0,1.1694729E0,1.0216905E0,3.0348377E0,1.0052427E0,1.0161318E0,1.991316E1,1.828859E0,1.6886639E1,1.2819883E0,1.7605286E1,8.7750214E2,8.011467E0,1.76672E0,1.1143963E0,5.0960746E0,2.3679314E1,6.333447E1,3.3635182E0,1.6091362E0,3.632724E0,1.7946054E0,1.8382864E1,1.5302961E0,3.539084E0,1.3347555E1,1.2179965E0,1.638729E1,1.0084668E0,7.003E0,1.1584595E0,3.9376152E0,3.8983648E0,1.978095E1,6.231797E1,1.0164987E0],"tree_param":{"num_deleted":"0","num_feature":"30","num_nodes":"69","size_leaf_vector":"1"}},{"base_weights":[-8.846166E-1,-2.1755858E-1,-9.413852E-1,3.031015E-1,-5.199495E-1,-9.671019E-1,-6.982505E-1,9.4043535E-1,1.4437082E-1,-7.014819E-1,-1.0943705E-1,-9.725937E-1,-4.7369966E-1,1.2916069E-1,-7.712577E-1,5.8288258E-2,3.583357E-1,-4.858857E-1,2.8253886E-1,-8.157603E-1,4.6359714E-2,-6.364614E-1,3.1806853E-1,-6.3902426E-1,-2.9367265E-1,-2.5657406E-1,3.4337005E-1,7.646954E-1,-2.1660717E-1,-4.336337E-1,-9.031966E-1,-2.1699381E-1,1.5219851E-2,7.214948E-1,2.306005E-2,-8.833917E-1,-8.055647E-2,-2.1806416E-1,3.9662984E-1,-2.4754658E-1,-1.9057345E-2,9.206835E-1,-1.7188454E-1,-8.783515E-1,4.086066E-1,4.4871148E-1,-1.9035E-1,1.4085965E0,-1.1074288E-1,3.3267778E-1,-7.481919E-1,-5.10287E-1,-2.93712E-1,2.3516588E-2,2.4787517E-1,-6.807335E-2,1.5549979E-1,-2.7692053E-1,-2.1386024E-2,-1.6762523E-1,1.4596859E-1,3.5668574E-2,3.7500638E-1,1.5235478E-1,-1.984928E-1,-4.644866E-2,-2.781137E-1,-1.8102267E-1,4.3582562E-1,5.8309164E-2,5.865654E-1,3.199657E-1,-1.4884526E-1,1.0670624E-2,-2.7780023E-1,-2.6267445E-1,1.1578422E-1],"categories":[],"categories_nodes":[],"categories_segments":[],"categories_sizes":[],"default_left":[0,0,0,0,0,0,0,0,0,0,0,0,0,0,0,0,0,0,0,0,0,0,0,0,0,0,0,0,0,0,0,0,0,0,0,0,0,0,0,0,0,0,0,0,0,0,0,0,0,0,0,0,0,0,0,0,0,0,0,0,0,0,0,0,0,0,0,0,0,0,0,0,0,0,0,0,0],"id":12,"left_children":[1,3,5,7,9,11,13,15,17,19,21,23,25,27,29,-1,-1,31,33,35,37,39,41,43,-1,-1,45,47,-1,49,51,-1,-1,53,55,57,59,-1,-1,-1,-1,61,63,65,67,-1,-1,69,-1,71,73,75,-1,-1,-1,-1,-1,-1,-1,-1,-1,-1,-1,-1,-1,-1,-1,-1,-1,-1,-1,-1,-1,-1,-1,-1,-1],"loss_changes":[3.0730957E1,1.0449884E1,4.0302124E0,2.3578715E0,3.032421E0,1.3763428E0,4.665348E0,6.6509485E-1,1.9586576E0,2.4943867E0,3.351687E0,7.849121E-1,3.2280924E0,4.3306713E0,2.7086334E0,0E0,0E0,5.6269735E-1,2.0093334E0,1.1713123E0,5.6530294E0,6.60393E-1,2.6337304E0,4.2002163E0,0E0,0E0,5.129372E0,3.7941568E0,0E0,5.426474E0,9.641228E-1,0E0,0E0,3.7819862E-1,1.6295185E0,6.682949E-1,1.141134E0,0E0,0E0,0E0,0E0,8.857434E-1,2.1560364E0,3.0704403E-1,4.6084146E0,0E0,0E0,1.6562686E0,0E0,4.7524023E0,2.19804E0,3.6235797E0,0E0,0E0,0E0,0E0,0E0,0E0,0E0,0E0,0E0,0E0,0E0,0E0,0E0,0E0,0E0,0E0,0E0,0E0,0E0,0E0,0E0,0E0,0E0,0E0,0E0],"parents":[2147483647,0,0,1,1,2,2,3,3,4,4,5,5,6,6,7,7,8,8,9,9,10,10,11,11,12,12,13,13,14,14,17,17,18,18,19,19,20,20,21,21,22,22,23,23,26,26,27,27,29,29,30,30,33,33,34,34,35,35,36,36,41,41,42,42,43,43,44,44,47,47,49,49,50,50,51,51],"right_children":[2,4,6,8,10,12,14,16,18,20,22,24,26,28,30,-1,-1,32,34,36,38,40,42,44,-1,-1,46,48,-1,50,52,-1,-1,54,56,58,60,-1,-1,-1,-1,62,64,66,68,-1,-1,70,-1,72,74,76,-1,-1,-1,-1,-1,-1,-1,-1,-1,-1,-1,-1,-1,-1,-1,-1,-1,-1,-1,-1,-1,-1,-1,-1,-1],"split_conditions":[-1.7859976E0,-1.8875681E0,1.620582E0,-1.0487649E-1,2.1870494E0,2.4990346E0,-1.8798271E0,1.5665317E-1,1.165863E0,-1.8931006E0,-1.66991E-1,-9.853448E-1,-6.563022E-2,-8.215705E-2,-7.3114365E-2,5.8288258E-2,3.583357E-1,1.2725322E0,4.9364898E-1,7.182577E-1,7.748741E-2,1.6683588E0,-7.0005053E-1,-2.027623E0,-2.9367265E-1,-2.5657406E-1,7.9245764E-1,1.2032487E0,-2.1660717E-1,-6.994265E-1,-5.9687495E-1,-2.1699381E-1,1.5219851E-2,-8.6251116E-1,1.28753595E-2,1.528745E0,-8.523853E-2,-2.1806416E-1,3.9662984E-1,-2.4754658E-1,-1.9057345E-2,1.4300874E0,1.1909044E0,-1.5609502E0,-4.4417855E-1,4.4871148E-1,-1.9035E-1,8.347008E-2,-1.1074288E-1,2.7736297E-1,-4.4777635E-1,-7.6125324E-1,-2.93712E-1,2.3516588E-2,2.4787517E-1,-6.807335E-2,1.5549979E-1,-2.7692053E-1,-2.1386024E-2,-1.6762523E-1,1.4596859E-1,3.5668574E-2,3.7500638E-1,1.5235478E-1,-1.984928E-1,-4.644866E-2,-2.781137E-1,-1.8102267E-1,4.3582562E-1,5.8309164E-2,5.865654E-1,3.199657E-1,-1.4884526E-1,1.0670624E-2,-2.7780023E-1,-2.6267445E-1,1.1578422E-1],"split_indices":[14,10,4,28,4,7,8,22,4,14,21,20,9,13,6,0,0,11,21,29,23,11,13,1,0,0,6,2,0,12,18,0,0,22,29,0,27,0,0,0,0,11,17,18,4,0,0,15,0,14,25,18,0,0,0,0,0,0,0,0,0,0,0,0,0,0,0,0,0,0,0,0,0,0,0,0,0],"split_type":[0,0,0,0,0,0,0,0,0,0,0,0,0,0,0,0,0,0,0,0,0,0,0,0,0,0,0,0,0,0,0,0,0,0,0,0,0,0,0,0,0,0,0,0,0,0,0,0,0,0,0,0,0,0,0,0,0,0,0,0,0,0,0,0,0,0,0,0,0,0,0,0,0,0,0,0,0],"sum_hessian":[8.159359E2,6.437155E1,7.5156433E2,2.36494E1,4.0722153E1,6.769815E2,7.458283E1,3.733593E0,1.9915808E1,2.774449E1,1.2977662E1,6.685688E2,8.412736E0,5.984918E0,6.8597916E1,1.3964863E0,2.3371067E0,3.1284924E0,1.6787315E1,2.3988033E1,3.756456E0,5.5933995E0,7.3842626E0,1.4320735E1,6.5424805E2,5.7029185E0,2.7098174E0,3.4846923E0,2.500226E0,2.0479265E1,4.811865E1,1.9276812E0,1.2008113E0,5.5752335E0,1.1212081E1,2.1782686E1,2.2053478E0,2.6067212E0,1.1497347E0,3.8764799E0,1.7169195E0,2.9171743E0,4.467088E0,1.1789135E1,2.5316E0,1.0008494E0,1.708968E0,2.067974E0,1.416718E0,5.9431787E0,1.4536087E1,9.035911E0,3.9082737E1,1.0258342E0,4.5493994E0,7.8114004E0,3.4006808E0,2.0637758E1,1.1449283E0,1.2044827E0,1.000865E0,1.2456334E0,1.671541E0,1.8552513E0,2.6118367E0,1.0069506E0,1.0782185E1,1.4999288E0,1.0316712E0,1.0627706E0,1.0052036E0,3.000028E0,2.9431508E0,2.8358686E0,1.1700218E1,6.435799E0,2.6001108E0],"tree_param":{"num_deleted":"0","num_feature":"30","num_nodes":"77","size_leaf_vector":"1"}},{"base_weights":[-8.543418E-1,-1.77634E-1,-9.215065E-1,2.856864E-1,-4.3797088E-1,-9.5417005E-1,-6.3893795E-1,1.3855243E-1,3.0584273E-1,-7.8239304E-1,-1.7838094E-1,-9.6138865E-1,-4.0918294E-1,-1.74608E-1,-7.938649E-1,-1.5008475E-1,4.5990387E-1,-8.87714E-1,-4.449875E-2,-3.2360658E-1,7.457068E-1,-5.710334E-1,-9.697981E-1,3.9845237E-1,-2.497221E-1,5.452198E-1,-6.646237E-1,1.9364434E-1,-8.5040814E-1,-5.271199E-1,3.4084684E-1,6.083741E-1,-6.655627E-2,-6.694218E-2,-2.790695E-1,-1.2708241E-1,1.0844415E-1,-6.756052E-1,1.6640384E-1,5.894258E-1,-1.7962258E-1,2.0977439E-1,-7.756938E-1,-8.3668363E-1,-9.8414165E-1,4.4806486E-1,-1.8395746E-1,-3.1054896E-1,1.768289E0,-2.674825E-1,8.2956776E-2,2.9506138E-1,-1.7130199E-1,-1.385859E-1,-9.092498E-1,1.2852854E-1,-2.670775E-1,2.0706317E-1,-1.3132633E-2,2.5034502E-1,7.504722E-2,-2.4827151E-1,1.4863053E-1,2.28183E-1,-6.502018E-2,1.3147382E-2,-2.7184E-1,-2.660648E-1,5.521422E-2,-2.959024E-1,-1.290437E-1,1.0240404E-1,-2.2579245E-1,9.312053E-2,7.417032E-1,2.295473E-1,-2.1369691E-1,-2.925362E-1,-1.21345885E-1],"categories":[],"categories_nodes":[],"categories_segments":[],"categories_sizes":[],"default_left":[0,0,0,0,0,0,0,0,0,0,0,0,0,0,0,0,0,0,0,0,0,0,0,0,0,0,0,0,0,0,0,0,0,0,0,0,0,0,0,0,0,0,0,0,0,0,0,0,0,0,0,0,0,0,0,0,0,0,0,0,0,0,0,0,0,0,0,0,0,0,0,0,0,0,0,0,0,0,0],"id":13,"left_children":[1,3,5,7,9,11,13,15,-1,17,19,21,23,25,27,29,31,33,35,37,39,41,43,45,-1,47,49,51,53,55,57,59,-1,-1,-1,-1,-1,61,63,-1,-1,-1,65,67,69,-1,-1,71,73,-1,-1,-1,-1,75,77,-1,-1,-1,-1,-1,-1,-1,-1,-1,-1,-1,-1,-1,-1,-1,-1,-1,-1,-1,-1,-1,-1,-1,-1],"loss_changes":[2.8330719E1,7.1022863E0,4.6520386E0,2.1708114E0,3.2069616E0,1.6089783E0,4.3285027E0,1.8309214E0,0E0,1.1877098E0,3.2794418E0,1.0928345E0,3.2010365E0,6.294393E0,2.7487984E0,2.1715143E0,1.0696801E0,1.8139744E-1,6.187261E-1,3.607164E0,6.7114606E0,3.924675E0,1.11328125E-1,4.8627796E0,0E0,8.253518E0,2.4803762E0,2.5674202E0,1.7151985E0,2.6296859E0,7.399416E-1,4.2708325E-1,0E0,0E0,0E0,0E0,0E0,2.5435228E0,2.2758665E0,0E0,0E0,0E0,1.2881441E0,2.945366E0,1.0739136E-1,0E0,0E0,1.7501645E0,2.496173E0,0E0,0E0,0E0,0E0,2.8970938E0,9.496002E-1,0E0,0E0,0E0,0E0,0E0,0E0,0E0,0E0,0E0,0E0,0E0,0E0,0E0,0E0,0E0,0E0,0E0,0E0,0E0,0E0,0E0,0E0,0E0,0E0],"parents":[2147483647,0,0,1,1,2,2,3,3,4,4,5,5,6,6,7,7,9,9,10,10,11,11,12,12,13,13,14,14,15,15,16,16,17,17,18,18,19,19,20,20,21,21,22,22,23,23,25,25,26,26,27,27,28,28,29,29,30,30,31,31,37,37,38,38,42,42,43,43,44,44,47,47,48,48,53,53,54,54],"right_children":[2,4,6,8,10,12,14,16,-1,18,20,22,24,26,28,30,32,34,36,38,40,42,44,46,-1,48,50,52,54,56,58,60,-1,-1,-1,-1,-1,62,64,-1,-1,-1,66,68,70,-1,-1,72,74,-1,-1,-1,-1,76,78,-1,-1,-1,-1,-1,-1,-1,-1,-1,-1,-1,-1,-1,-1,-1,-1,-1,-1,-1,-1,-1,-1,-1,-1],"split_conditions":[-1.7859976E0,-2.190045E0,1.620582E0,1.6930159E0,-3.685977E-1,2.4990346E0,-2.201951E-1,-9.075381E-2,3.0584273E-1,3.5669595E-1,3.8241845E-1,-9.853448E-1,-3.3360067E-1,-5.725717E-1,-3.5274962E-1,-1.0934276E-1,4.151263E-1,-2.2186575E0,2.286834E-1,1.8959074E0,3.4233343E-2,-3.4875154E-1,-8.069166E-1,-4.2868984E-1,-2.497221E-1,-9.9276954E-1,1.1736002E0,-4.970148E-1,-1.8782043E0,1.7942339E0,-2.3315287E0,-6.073051E-2,-6.655627E-2,-6.694218E-2,-2.790695E-1,-1.2708241E-1,1.0844415E-1,6.885289E-1,3.9091518E0,5.894258E-1,-1.7962258E-1,2.0977439E-1,-1.6452816E0,1.4751992E0,3.4412742E0,4.4806486E-1,-1.8395746E-1,-2.8117332E0,-1.2430433E-1,-2.674825E-1,8.2956776E-2,2.9506138E-1,-1.7130199E-1,1.5438415E-2,1.0303894E0,1.2852854E-1,-2.670775E-1,2.0706317E-1,-1.3132633E-2,2.5034502E-1,7.504722E-2,-2.4827151E-1,1.4863053E-1,2.28183E-1,-6.502018E-2,1.3147382E-2,-2.7184E-1,-2.660648E-1,5.521422E-2,-2.959024E-1,-1.290437E-1,1.0240404E-1,-2.2579245E-1,9.312053E-2,7.417032E-1,2.295473E-1,-2.1369691E-1,-2.925362E-1,-1.21345885E-1],"split_indices":[14,12,4,21,1,7,8,23,0,21,29,20,26,12,29,26,18,10,23,4,11,29,14,16,0,12,22,9,19,2,7,24,0,0,0,0,0,12,4,0,0,0,16,11,29,0,0,12,17,0,0,0,0,0,11,0,0,0,0,0,0,0,0,0,0,0,0,0,0,0,0,0,0,0,0,0,0,0,0],"split_type":[0,0,0,0,0,0,0,0,0,0,0,0,0,0,0,0,0,0,0,0,0,0,0,0,0,0,0,0,0,0,0,0,0,0,0,0,0,0,0,0,0,0,0,0,0,0,0,0,0,0,0,0,0,0,0,0,0,0,0,0,0,0,0,0,0,0,0,0,0,0,0,0,0,0,0,0,0,0,0],"sum_hessian":[6.2592725E2,5.684447E1,5.6908276E2,2.041486E1,3.642961E1,5.0798535E2,6.109742E1,1.7995378E1,2.4194818E0,1.4791024E1,2.1638588E1,5.0059076E2,7.3945956E0,1.581762E1,4.52798E1,9.761014E0,8.2343645E0,1.2765888E1,2.0251353E0,1.9261364E1,2.377223E0,1.2009929E1,4.885808E2,2.5627153E0,4.8318806E0,6.360887E0,9.456733E0,2.3209229E0,4.2958878E1,5.479244E0,4.2817693E0,6.850198E0,1.3841665E0,1.1433246E0,1.1622564E1,1.0247687E0,1.0003667E0,1.0988807E1,8.272558E0,1.004781E0,1.3724421E0,1.3311499E0,1.0678779E1,5.3296597E1,4.3528424E2,1.0018554E0,1.56086E0,4.1813383E0,2.1795485E0,7.661562E0,1.7951709E0,1.0008134E0,1.3201095E0,3.5361693E0,3.9422707E1,1.4593565E0,4.019888E0,1.8273861E0,2.4543834E0,3.384394E0,3.465804E0,9.986196E0,1.0026114E0,2.8567805E0,5.415777E0,1.55749E0,9.121288E0,5.0923347E1,2.3732502E0,4.3278546E2,2.4987752E0,1.7818146E0,2.3995237E0,1.1790224E0,1.000526E0,1.243611E0,2.2925584E0,3.40477E1,5.3750105E0],"tree_param":{"num_deleted":"0","num_feature":"30","num_nodes":"79","size_leaf_vector":"1"}},{"base_weights":[-8.171428E-1,-1.3867898E-1,-8.962066E-1,1.8972751E-1,-4.4983444E-1,-9.4315946E-1,-6.050632E-1,4.0946975E-1,-3.4763038E-1,-8.062758E-2,-7.794621E-1,-9.506425E-1,-1.784426E-1,-1.8420689E-1,-8.212243E-1,1.374096E0,1.14577554E-1,-2.1197824E-1,1.6737248E-1,-5.1822394E-1,5.146522E-1,-1.0361891E-1,-2.7147278E-1,-9.6536046E-1,-5.180556E-1,-2.2273928E-1,2.9611325E-1,7.5370806E-1,-4.901451E-1,1.6166076E-1,-8.8622046E-1,5.4311186E-1,1.2087279E-1,3.458583E-1,-2.8993082E-1,-1.2505879E-1,5.082867E-1,-2.4783546E-1,1.0365175E-1,-1.1644005E-1,9.8397136E-1,1.5414561E-1,-1.7721836E-1,-8.119339E-1,-9.8282284E-1,3.435815E-1,-8.442478E-1,-1.3593131E-1,1.6517154E0,1.624287E-1,-6.2510806E-1,-1.7885251E-1,2.971807E-1,-9.32345E-1,1.23917505E-1,-4.878847E-2,2.5432557E-1,8.306204E-2,-2.1180934E-1,4.0703658E-2,1.8895155E-1,4.5472035E-1,4.309846E-2,-2.626602E-1,3.783676E-2,-8.9071326E-2,-2.9576984E-1,-2.7509177E-1,-2.8587235E-3,-2.0728068E-1,2.1993469E-1,7.084882E-2,6.686133E-1,4.9258196E-3,-2.5421423E-1,-4.9441475E-2,-2.846192E-1],"categories":[],"categories_nodes":[],"categories_segments":[],"categories_sizes":[],"default_left":[0,0,0,0,0,0,0,0,0,0,0,0,0,0,0,0,0,0,0,0,0,0,0,0,0,0,0,0,0,0,0,0,0,0,0,0,0,0,0,0,0,0,0,0,0,0,0,0,0,0,0,0,0,0,0,0,0,0,0,0,0,0,0,0,0,0,0,0,0,0,0,0,0,0,0,0,0],"id":14,"left_children":[1,3,5,7,9,11,13,15,17,19,21,23,25,27,29,31,33,-1,35,37,39,41,-1,43,45,-1,-1,47,49,51,53,-1,-1,55,57,-1,59,-1,-1,-1,61,-1,-1,63,65,-1,67,69,71,-1,73,-1,-1,75,-1,-1,-1,-1,-1,-1,-1,-1,-1,-1,-1,-1,-1,-1,-1,-1,-1,-1,-1,-1,-1,-1,-1],"loss_changes":[2.5929321E1,5.3862596E0,5.3732605E0,3.2055135E0,3.2150416E0,1.9628296E0,5.5959015E0,5.210703E0,1.6101681E0,3.866617E0,1.1028833E0,1.8479309E0,3.9159346E0,6.890641E0,2.7911415E0,1.1041231E0,1.5544858E0,0E0,1.0331062E0,2.5360518E0,3.0751994E0,1.3077636E0,0E0,1.545105E-1,8.721791E0,0E0,0E0,5.0050335E0,2.8086514E0,2.7368915E0,2.724226E0,0E0,0E0,2.77811E0,1.6573544E0,0E0,5.287969E-2,0E0,0E0,0E0,1.7775426E0,0E0,0E0,2.6208897E0,3.708496E-1,0E0,7.5160503E-1,2.402019E0,1.9680347E0,0E0,2.3173747E0,0E0,0E0,3.2156754E-1,0E0,0E0,0E0,0E0,0E0,0E0,0E0,0E0,0E0,0E0,0E0,0E0,0E0,0E0,0E0,0E0,0E0,0E0,0E0,0E0,0E0,0E0,0E0],"parents":[2147483647,0,0,1,1,2,2,3,3,4,4,5,5,6,6,7,7,8,8,9,9,10,10,11,11,12,12,13,13,14,14,15,15,16,16,18,18,19,19,20,20,21,21,23,23,24,24,27,27,28,28,29,29,30,30,33,33,34,34,36,36,40,40,43,43,44,44,46,46,47,47,48,48,50,50,53,53],"right_children":[2,4,6,8,10,12,14,16,18,20,22,24,26,28,30,32,34,-1,36,38,40,42,-1,44,46,-1,-1,48,50,52,54,-1,-1,56,58,-1,60,-1,-1,-1,62,-1,-1,64,66,-1,68,70,72,-1,74,-1,-1,76,-1,-1,-1,-1,-1,-1,-1,-1,-1,-1,-1,-1,-1,-1,-1,-1,-1,-1,-1,-1,-1,-1,-1],"split_conditions":[-1.7859976E0,-1.4045628E0,1.3935225E0,4.6772346E-1,-1.9154577E-1,3.0202103E0,-4.480329E-1,-1.997254E-1,1.8959074E0,1.1029649E0,-9.490051E-1,6.777285E-1,6.5557957E-1,-7.233957E-1,-3.5023084E-1,2.2414032E-2,-3.7707021E0,-2.1197824E-1,-4.3746195E0,-4.6659023E-1,-4.692928E-1,-5.4889935E-1,-2.7147278E-1,-8.069166E-1,-1.3385137E0,-2.2273928E-1,2.9611325E-1,6.049947E-2,-7.729964E-1,8.659706E-2,2.1389253E0,5.4311186E-1,1.2087279E-1,-1.9751956E-1,-4.2783087E-1,-1.2505879E-1,5.6990176E-1,-2.4783546E-1,1.0365175E-1,-1.1644005E-1,-1.4611049E-1,1.5414561E-1,-1.7721836E-1,1.4751992E0,-1.3991737E0,3.435815E-1,1.4269769E0,5.927178E-1,-2.8117332E0,1.624287E-1,-3.2264403E-1,-1.7885251E-1,2.971807E-1,-1.4909433E0,1.23917505E-1,-4.878847E-2,2.5432557E-1,8.306204E-2,-2.1180934E-1,4.0703658E-2,1.8895155E-1,4.5472035E-1,4.309846E-2,-2.626602E-1,3.783676E-2,-8.9071326E-2,-2.9576984E-1,-2.7509177E-1,-2.8587235E-3,-2.0728068E-1,2.1993469E-1,7.084882E-2,6.686133E-1,4.9258196E-3,-2.5421423E-1,-4.9441475E-2,-2.846192E-1],"split_indices":[14,10,4,16,15,7,12,8,4,18,9,21,19,14,29,27,3,0,3,15,24,13,0,14,13,0,0,28,24,24,19,0,0,26,0,0,25,0,0,0,24,0,0,11,20,0,14,29,12,0,29,0,0,10,0,0,0,0,0,0,0,0,0,0,0,0,0,0,0,0,0,0,0,0,0,0,0],"split_type":[0,0,0,0,0,0,0,0,0,0,0,0,0,0,0,0,0,0,0,0,0,0,0,0,0,0,0,0,0,0,0,0,0,0,0,0,0,0,0,0,0,0,0,0,0,0,0,0,0,0,0,0,0,0,0,0,0,0,0,0,0,0,0,0,0,0,0,0,0,0,0,0,0,0,0,0,0],"sum_hessian":[4.846942E2,5.0875416E1,4.338188E2,2.494143E1,2.5933985E1,3.716441E2,6.21747E1,1.78713E1,7.070131E0,1.2819651E1,1.3114333E1,3.6780185E2,3.842234E0,2.1726437E1,4.0448265E1,3.327385E0,1.4543914E1,3.9470005E0,3.1231303E0,7.4629807E0,5.35667E0,2.3390038E0,1.077533E1,3.5450882E2,1.3293047E1,2.8338084E0,1.0084257E0,4.9838495E0,1.6742588E1,2.4166093E0,3.8031654E1,1.699743E0,1.6276419E0,9.345528E0,5.1983857E0,1.0687693E0,2.054361E0,5.533866E0,1.9291148E0,1.8913813E0,3.4652886E0,1.0073273E0,1.3316765E0,4.1079178E1,3.1342963E2,1.7677678E0,1.1525279E1,2.9298906E0,2.053959E0,1.5886023E0,1.5153985E1,1.4091419E0,1.0074674E0,3.7000546E1,1.0311083E0,4.978053E0,4.367475E0,2.3423195E0,2.8560665E0,1.0258665E0,1.0284946E0,1.630009E0,1.8352795E0,3.8533276E1,2.5458992E0,1.8349639E0,3.1159467E2,1.0510972E1,1.0143074E0,1.91308E0,1.0168107E0,1.0028783E0,1.0510807E0,4.1377277E0,1.1016257E1,1.0045236E0,3.599602E1],"tree_param":{"num_deleted":"0","num_feature":"30","num_nodes":"77","size_leaf_vector":"1"}},{"base_weights":[-7.741981E-1,-1.8859121E-1,-8.789205E-1,-7.340233E-1,3.3734754E-2,-2.5371203E-1,-9.054516E-1,-7.6484695E-2,-8.621E-1,5.3524107E-1,-1.3611679E-1,4.1748223E-1,-2.6289248E-1,-9.358511E-1,-4.2499802E-1,1.9461612E-1,-1.9111694E-1,-2.781321E-1,-7.2511856E-4,1.5804882E-1,5.40219E-1,1.23239495E-1,-5.430685E-1,1.566094E0,-3.4905103E-1,-1.3148461E-1,-9.422606E-1,-5.8371484E-1,2.6938844E-1,4.5524523E-1,-4.6315843E-1,4.357467E-1,-4.0007567E-1,-6.6575485E-1,1.3054489E-1,7.211112E-1,-2.8008144E-2,1.8264143E-1,-2.3525463E-1,1.490875E-1,-1.7775607E-1,-9.518294E-1,-3.1476578E-1,1.7881204E-1,-6.998329E-1,2.2510096E-1,-8.391661E-2,-1.9166705E-1,-2.078975E-3,3.2026008E-2,5.69374E-1,1.733176E-1,-2.0393409E-1,1.3127353E-2,-2.2887203E-1,-2.8651586E-1,-9.842466E-2,2.1529831E-1,-2.3383367E-1,5.6266233E-2,-2.6073572E-1],"categories":[],"categories_nodes":[],"categories_segments":[],"categories_sizes":[],"default_left":[0,0,0,0,0,0,0,0,0,0,0,0,0,0,0,0,0,0,0,0,0,0,0,0,0,0,0,0,0,0,0,0,0,0,0,0,0,0,0,0,0,0,0,0,0,0,0,0,0,0,0,0,0,0,0,0,0,0,0,0,0],"id":15,"left_children":[1,3,5,7,9,11,13,15,17,19,21,23,-1,25,27,-1,-1,-1,-1,29,-1,31,33,35,37,39,41,43,-1,45,47,49,51,53,-1,-1,-1,-1,-1,-1,-1,55,57,-1,59,-1,-1,-1,-1,-1,-1,-1,-1,-1,-1,-1,-1,-1,-1,-1,-1],"loss_changes":[2.310759E1,7.1603065E0,5.105774E0,1.3727674E0,3.7151833E0,6.418205E0,4.1033325E0,1.9916046E0,7.91399E-1,4.975977E0,3.5223565E0,7.279439E0,0E0,1.3660889E0,4.759491E0,0E0,0E0,0E0,0E0,1.9806988E0,0E0,3.5776668E0,1.8412833E0,4.732037E0,2.7297797E0,1.2931371E0,1.42099E0,2.9673433E0,0E0,1.7255784E0,2.8402704E-1,6.2954407E0,2.6633382E0,8.524723E-1,0E0,0E0,0E0,0E0,0E0,0E0,0E0,2.5317383E-1,3.3410559E0,0E0,2.7780495E0,0E0,0E0,0E0,0E0,0E0,0E0,0E0,0E0,0E0,0E0,0E0,0E0,0E0,0E0,0E0,0E0],"parents":[2147483647,0,0,1,1,2,2,3,3,4,4,5,5,6,6,7,7,8,8,9,9,10,10,11,11,13,13,14,14,19,19,21,21,22,22,23,23,24,24,25,25,26,26,27,27,29,29,30,30,31,31,32,32,33,33,41,41,42,42,44,44],"right_children":[2,4,6,8,10,12,14,16,18,20,22,24,-1,26,28,-1,-1,-1,-1,30,-1,32,34,36,38,40,42,44,-1,46,48,50,52,54,-1,-1,-1,-1,-1,-1,-1,56,58,-1,60,-1,-1,-1,-1,-1,-1,-1,-1,-1,-1,-1,-1,-1,-1,-1,-1],"split_conditions":[-1.3363411E0,3.7293696E-1,-9.853448E-1,-1.6016932E0,-9.3514186E-1,-7.4986964E-2,2.7407496E0,1.4806494E-1,1.4919358E0,-3.5869166E-1,-1.9638966E0,-6.327378E-1,-2.6289248E-1,-2.1597652E0,1.278442E0,1.9461612E-1,-1.9111694E-1,-2.781321E-1,-7.2511856E-4,1.1420456E0,5.40219E-1,5.213426E-1,8.7730575E-1,-7.448474E-1,-8.2587683E-1,-1.7244423E-2,2.4990346E0,-1.1679764E0,2.6938844E-1,6.948763E-1,1.0664976E0,-2.385491E0,-1.3591017E0,-1.6137081E0,1.3054489E-1,7.211112E-1,-2.8008144E-2,1.8264143E-1,-2.3525463E-1,1.490875E-1,-1.7775607E-1,2.0099978E0,-5.366979E-1,1.7881204E-1,-3.7729976E-1,2.2510096E-1,-8.391661E-2,-1.9166705E-1,-2.078975E-3,3.2026008E-2,5.69374E-1,1.733176E-1,-2.0393409E-1,1.3127353E-2,-2.2887203E-1,-2.8651586E-1,-9.842466E-2,2.1529831E-1,-2.3383367E-1,5.6266233E-2,-2.6073572E-1],"split_indices":[14,4,20,10,13,12,4,16,0,3,3,16,0,19,7,0,0,0,0,1,0,16,20,2,14,23,7,25,0,15,2,14,15,17,0,0,0,0,0,0,0,15,26,0,21,0,0,0,0,0,0,0,0,0,0,0,0,0,0,0,0],"split_type":[0,0,0,0,0,0,0,0,0,0,0,0,0,0,0,0,0,0,0,0,0,0,0,0,0,0,0,0,0,0,0,0,0,0,0,0,0,0,0,0,0,0,0,0,0,0,0,0,0,0,0,0,0,0,0,0,0,0,0,0,0],"sum_hessian":[3.7850125E2,5.7843193E1,3.2065805E2,1.6083643E1,4.1759552E1,1.348339E1,3.0717465E2,2.8824558E0,1.3201188E1,1.0020787E1,3.1738764E1,6.646997E0,6.836393E0,2.8800406E2,1.9170586E1,1.1881336E0,1.6943221E0,1.2200209E1,1.0009786E0,8.586409E0,1.4343783E0,1.9810444E1,1.1928321E1,2.2429545E0,4.4040422E0,2.446876E0,2.855572E2,1.7615961E1,1.5546242E0,5.988545E0,2.5978642E0,1.2508248E1,7.3021946E0,1.0882835E1,1.0454849E0,1.192533E0,1.0504215E0,1.2510253E0,3.153017E0,1.0024743E0,1.4444017E0,2.8075897E2,4.798209E0,1.2081498E0,1.6407812E1,4.258025E0,1.7305199E0,1.5864258E0,1.0114384E0,1.1086706E1,1.4215428E0,1.3872197E0,5.9149747E0,1.3768822E0,9.505954E0,2.787871E2,1.9718724E0,1.320313E0,3.4778962E0,2.6113539E0,1.3796457E1],"tree_param":{"num_deleted":"0","num_feature":"30","num_nodes":"61","size_leaf_vector":"1"}},{"base_weights":[-7.233556E-1,-1.5117288E-1,-8.4430534E-1,-6.8356514E-1,3.4451704E-2,-9.445397E-1,-5.941882E-1,-6.535487E-2,-8.2453305E-1,1.1861812E-1,-2.3037045E-1,-9.551177E-1,2.2767903E-3,-1.05307914E-1,-7.6362246E-1,1.5638602E-1,-1.772049E-1,-2.7137437E-1,-6.165347E-4,7.0265335E-1,2.0276614E-2,-2.7455548E-2,-9.6059436E-1,-3.4725398E-1,1.0553957E0,-8.278569E-2,-8.734892E-1,1.2297809E0,-4.288812E-2,-2.992445E-1,2.016473E-1,-9.6611935E-1,-4.8727404E-2,5.17487E-1,-6.1154693E-1,5.472291E-1,1.2868106E-2,-4.6575895E-1,3.6357588E-1,-9.305159E-1,-2.7311677E-1,4.4962204E-1,9.389657E-2,2.4742264E-1,-1.4915793E-1,-8.154758E-2,9.935408E-2,-2.9146302E-1,-1.10826716E-1,4.1317654E-1,-8.329493E-2,-2.742519E-1,1.04428045E-1,8.476396E-2,-2.4510683E-1,-3.1920446E-3,-2.8588298E-1,2.957314E-1,-2.3334123E-1],"categories":[],"categories_nodes":[],"categories_segments":[],"categories_sizes":[],"default_left":[0,0,0,0,0,0,0,0,0,0,0,0,0,0,0,0,0,0,0,0,0,0,0,0,0,0,0,0,0,0,0,0,0,0,0,0,0,0,0,0,0,0,0,0,0,0,0,0,0,0,0,0,0,0,0,0,0,0,0],"id":16,"left_children":[1,3,5,7,9,11,13,15,17,19,-1,21,-1,23,25,-1,-1,-1,-1,27,29,-1,31,33,35,37,39,41,-1,43,45,47,-1,49,51,-1,-1,53,-1,55,57,-1,-1,-1,-1,-1,-1,-1,-1,-1,-1,-1,-1,-1,-1,-1,-1,-1,-1],"loss_changes":[2.0675522E1,5.3276916E0,5.6544037E0,1.1595125E0,2.8428836E0,1.7728119E0,6.018364E0,1.4393852E0,7.389507E-1,2.1536932E0,0E0,7.321167E-1,0E0,6.0138984E0,4.0056667E0,0E0,0E0,0E0,0E0,2.587342E0,1.992219E0,0E0,6.0240173E-1,4.291664E0,2.8142471E0,4.868232E0,1.349453E0,3.7835264E-1,0E0,3.185276E0,1.4308612E0,1.9386292E-1,0E0,3.5361726E0,4.3201685E0,0E0,0E0,2.1814213E0,0E0,8.6374664E-1,4.247427E0,0E0,0E0,0E0,0E0,0E0,0E0,0E0,0E0,0E0,0E0,0E0,0E0,0E0,0E0,0E0,0E0,0E0,0E0],"parents":[2147483647,0,0,1,1,2,2,3,3,4,4,5,5,6,6,7,7,8,8,9,9,11,11,13,13,14,14,19,19,20,20,22,22,23,23,24,24,25,25,26,26,27,27,29,29,30,30,31,31,33,33,34,34,37,37,39,39,40,40],"right_children":[2,4,6,8,10,12,14,16,18,20,-1,22,-1,24,26,-1,-1,-1,-1,28,30,-1,32,34,36,38,40,42,-1,44,46,48,-1,50,52,-1,-1,54,-1,56,58,-1,-1,-1,-1,-1,-1,-1,-1,-1,-1,-1,-1,-1,-1,-1,-1,-1,-1],"split_conditions":[-1.3363411E0,3.7293696E-1,7.413282E-1,-1.6016932E0,5.767415E-1,1.5944186E0,-5.725717E-1,1.4806494E-1,1.4919358E0,-4.5147577E-1,-2.3037045E-1,-1.0517596E0,2.2767903E-3,1.2573508E0,-3.4707233E-1,1.5638602E-1,-1.772049E-1,-2.7137437E-1,-6.165347E-4,4.760241E-1,2.1870494E0,-2.7455548E-2,1.2022438E0,-1.5220747E0,-8.253656E-2,1.1066625E0,4.7826573E-1,7.2418794E-2,-4.288812E-2,5.201866E-1,-2.6461473E-1,3.0202103E0,-4.8727404E-2,7.153908E-1,2.977057E-1,5.472291E-1,1.2868106E-2,-8.6922354E-1,3.6357588E-1,-1.1277726E0,-7.694097E-1,4.4962204E-1,9.389657E-2,2.4742264E-1,-1.4915793E-1,-8.154758E-2,9.935408E-2,-2.9146302E-1,-1.10826716E-1,4.1317654E-1,-8.329493E-2,-2.742519E-1,1.04428045E-1,8.476396E-2,-2.4510683E-1,-3.1920446E-3,-2.8588298E-1,2.957314E-1,-2.3334123E-1],"split_indices":[14,4,4,10,10,22,12,16,0,26,0,26,0,15,29,0,0,0,0,5,4,0,26,19,24,11,21,28,0,4,26,7,0,16,23,0,0,11,0,14,13,0,0,0,0,0,0,0,0,0,0,0,0,0,0,0,0,0,0],"split_type":[0,0,0,0,0,0,0,0,0,0,0,0,0,0,0,0,0,0,0,0,0,0,0,0,0,0,0,0,0,0,0,0,0,0,0,0,0,0,0,0,0,0,0,0,0,0,0,0,0,0,0,0,0,0,0,0,0,0,0],"sum_hessian":[2.996001E2,5.267201E1,2.4692807E2,1.2923484E1,3.9748528E1,1.7430072E2,7.262736E1,2.671466E0,1.0252018E1,3.6746048E1,3.0024784E0,1.7238245E2,1.9182737E0,1.9109869E1,5.351749E1,1.2657157E0,1.4057504E0,9.25176E0,1.0002584E0,4.4101005E0,3.233595E1,1.1979058E0,1.7118454E2,1.6393503E1,2.7163646E0,7.679799E0,4.5837692E1,2.4367843E0,1.9733163E0,1.1473374E1,2.0862574E1,1.6979875E2,1.385778E0,3.6132603E0,1.2780244E1,1.0884383E0,1.6279263E0,6.4207907E0,1.2590083E0,4.1359264E1,4.478427E0,1.3932745E0,1.0435096E0,1.243892E0,1.0229483E1,4.245564E0,1.6617008E1,1.6764665E2,2.1521065E0,1.3843197E0,2.2289405E0,9.752225E0,3.0280192E0,2.1136537E0,4.307137E0,1.0194657E0,4.0339798E1,1.0088152E0,3.469612E0],"tree_param":{"num_deleted":"0","num_feature":"30","num_nodes":"59","size_leaf_vector":"1"}},{"base_weights":[-6.6477025E-1,-2.1591735E-1,-8.422414E-1,-6.394485E-1,6.7013554E-2,-8.9043313E-1,-2.6709694E-1,-2.0840608E-1,-8.4227324E-1,4.337342E-1,-1.4158118E-1,-9.076009E-1,1.5925409E-1,9.071602E-1,-5.3522456E-1,-5.527732E-1,7.42645E-1,-8.8926554E-1,-3.7724196E-3,1.0542783E0,-1.986499E-1,5.076497E-1,-3.571801E-1,-9.512799E-1,-5.6295735E-1,-1.6031061E-1,5.9623986E-1,2.9646847E-1,-7.503059E-1,-9.140863E-2,-2.4278973E-1,3.8035613E-1,-2.4562964E-2,-2.824869E-1,-1.5841264E-2,-6.233986E-3,2.191807E0,2.025628E-1,-2.183396E-1,-1.1140212E-1,7.1461356E-1,-5.0301856E-1,2.1712588E-1,-5.7726765E-1,-2.9323274E-1,-4.056618E-2,-7.9086274E-1,-2.7251044E-1,5.9262343E-2,1.428621E-1,-1.5274155E-1,-1.1519394E-1,1.7789957E-1,1.00218356E-1,9.20088E-1,-7.527776E-2,1.9925044E-1,7.94013E-2,2.9065427E-1,-6.14273E-2,-2.5589344E-1,1.8622446E-1,-1.05600335E-1,1.9325377E-1,-2.4288124E-1,2.126224E-1,-2.2865574E-1,-2.7804E-1,1.123405E-1],"categories":[],"categories_nodes":[],"categories_segments":[],"categories_sizes":[],"default_left":[0,0,0,0,0,0,0,0,0,0,0,0,0,0,0,0,0,0,0,0,0,0,0,0,0,0,0,0,0,0,0,0,0,0,0,0,0,0,0,0,0,0,0,0,0,0,0,0,0,0,0,0,0,0,0,0,0,0,0,0,0,0,0,0,0,0,0,0,0],"id":17,"left_children":[1,3,5,7,9,11,13,15,17,19,21,23,-1,25,27,29,31,33,-1,35,37,39,41,43,45,-1,-1,-1,47,49,-1,-1,-1,-1,-1,51,53,55,-1,-1,57,59,61,63,-1,65,67,-1,-1,-1,-1,-1,-1,-1,-1,-1,-1,-1,-1,-1,-1,-1,-1,-1,-1,-1,-1,-1,-1],"loss_changes":[1.9156212E1,8.446812E0,4.5746994E0,2.2883196E0,3.3469255E0,4.3804245E0,5.1617875E0,3.7991054E0,7.232094E-1,6.417055E0,4.118978E0,1.8465576E0,0E0,5.9394608E0,4.909485E0,8.92879E-1,1.4796695E0,7.3034E-1,0E0,9.836668E0,1.9893663E0,1.6163095E0,1.9271715E0,7.958069E-1,2.378644E0,0E0,0E0,0E0,1.9345732E0,1.2019206E0,0E0,0E0,0E0,0E0,0E0,1.4072822E0,5.367344E0,1.3633804E0,0E0,0E0,4.702685E-1,1.6635962E0,1.3886845E0,3.7934444E0,0E0,4.435877E0,2.5717964E0,0E0,0E0,0E0,0E0,0E0,0E0,0E0,0E0,0E0,0E0,0E0,0E0,0E0,0E0,0E0,0E0,0E0,0E0,0E0,0E0,0E0,0E0],"parents":[2147483647,0,0,1,1,2,2,3,3,4,4,5,5,6,6,7,7,8,8,9,9,10,10,11,11,13,13,14,14,15,15,16,16,17,17,19,19,20,20,21,21,22,22,23,23,24,24,28,28,29,29,35,35,36,36,37,37,40,40,41,41,42,42,43,43,45,45,46,46],"right_children":[2,4,6,8,10,12,14,16,18,20,22,24,-1,26,28,30,32,34,-1,36,38,40,42,44,46,-1,-1,-1,48,50,-1,-1,-1,-1,-1,52,54,56,-1,-1,58,60,62,64,-1,66,68,-1,-1,-1,-1,-1,-1,-1,-1,-1,-1,-1,-1,-1,-1,-1,-1,-1,-1,-1,-1,-1,-1],"split_conditions":[-8.069166E-1,7.413282E-1,1.278442E0,-8.771465E-1,-6.2748104E-1,4.4384885E0,-1.2069566E0,-1.0262203E0,9.599873E-1,-2.1621619E-1,-1.5825396E0,1.7272661E0,1.5925409E-1,3.195578E-2,-1.4655077E0,1.4806494E-1,-1.0195142E-1,1.7391944E0,-3.7724196E-3,1.8107599E-1,-2.3669946E0,-3.9180076E-1,7.182577E-1,-5.0159526E-1,-6.994265E-1,-1.6031061E-1,5.9623986E-1,2.9646847E-1,8.8129526E-1,-2.0772192E-1,-2.4278973E-1,3.8035613E-1,-2.4562964E-2,-2.824869E-1,-1.5841264E-2,1.11171E-1,-1.6885719E0,-5.724367E0,-2.183396E-1,-1.1140212E-1,2.2503251E-2,-2.385491E0,-2.4333154E-1,-4.254906E-1,-2.9323274E-1,4.799177E-2,1.1066625E0,-2.7251044E-1,5.9262343E-2,1.428621E-1,-1.5274155E-1,-1.1519394E-1,1.7789957E-1,1.00218356E-1,9.20088E-1,-7.527776E-2,1.9925044E-1,7.94013E-2,2.9065427E-1,-6.14273E-2,-2.5589344E-1,1.8622446E-1,-1.05600335E-1,1.9325377E-1,-2.4288124E-1,2.126224E-1,-2.2865574E-1,-2.7804E-1,1.123405E-1],"split_indices":[14,4,7,10,0,5,13,10,12,13,7,4,0,24,11,16,26,16,0,5,12,0,29,20,12,0,0,0,15,8,0,0,0,0,0,22,14,3,0,0,24,14,26,14,0,18,11,0,0,0,0,0,0,0,0,0,0,0,0,0,0,0,0,0,0,0,0,0,0],"split_type":[0,0,0,0,0,0,0,0,0,0,0,0,0,0,0,0,0,0,0,0,0,0,0,0,0,0,0,0,0,0,0,0,0,0,0,0,0,0,0,0,0,0,0,0,0,0,0,0,0,0,0,0,0,0,0,0,0,0,0,0,0,0,0,0,0,0,0,0,0],"sum_hessian":[2.4176239E2,6.913232E1,1.7263008E2,2.7182142E1,4.1950176E1,1.5877779E2,1.3852284E1,9.346503E0,1.7835638E1,1.4818735E1,2.7131441E1,1.572399E2,1.5378976E0,2.1319883E0,1.1720296E1,7.1693296E0,2.1771739E0,1.6811668E1,1.0239694E0,7.142659E0,7.6760764E0,6.4260716E0,2.070537E1,1.3799118E2,1.9248718E1,1.1297873E0,1.0022011E0,1.0052551E0,1.0715041E1,3.0464997E0,4.12283E0,1.0015295E0,1.1756444E0,1.57030325E1,1.1086364E0,4.2111473E0,2.9315116E0,4.7168465E0,2.9592297E0,1.0733308E0,5.352741E0,1.6611258E1,4.094113E0,1.0529487E1,1.27461685E2,6.2046914E0,1.3044027E1,9.219291E0,1.49575E0,1.2321938E0,1.8143058E0,2.8032446E0,1.4079027E0,1.3812202E0,1.5502915E0,2.6095693E0,2.1072774E0,2.6694353E0,2.6833057E0,9.823795E0,6.787462E0,2.3422775E0,1.7518351E0,1.3994801E0,9.130007E0,3.052704E0,3.1519873E0,1.1864688E1,1.1793393E0],"tree_param":{"num_deleted":"0","num_feature":"30","num_nodes":"69","size_leaf_vector":"1"}},{"base_weights":[-6.0303473E-1,-8.526243E-1,-2.580221E-1,-2.3913391E-1,-8.980492E-1,2.9491045E-2,-5.832265E-1,3.8871285E-1,-7.1834E-1,-9.3990475E-1,-3.6337397E-1,-4.4485244E-1,1.9039716E-1,4.9756277E-1,-6.8885136E-1,-4.6708074E-1,4.0273255E-1,-6.195114E-2,-2.3568726E-1,-3.7285828E-3,-9.495533E-1,5.618319E-1,-2.5446373E-1,-6.9002736E-1,2.2456793E-1,-8.5454956E-2,4.7497785E-1,-1.8303156E-1,5.932603E-1,-2.6639354E-1,-8.4879637E-1,-1.6535781E-1,-4.2601712E-2,-9.590321E-1,-2.4065917E-2,3.8616127E-1,-1.6491307E-1,5.7518642E-2,-2.4818872E-1,2.7294698E-1,-1.4763664E-1,9.853535E-2,-5.0957555E-1,-8.407909E-2,9.3096143E-1,-2.434636E-1,6.908243E-1,-2.2318428E-2,-9.186585E-1,-2.9070267E-1,-4.270582E-2,1.1666681E-1,-4.5447186E-2,1.5949056E-2,-1.9215496E-1,7.756191E-2,-1.5407515E-1,-9.25547E-2,4.1096988E-1,3.8598055E-1,-1.6637425E-1,-1.5507248E-1,1.4976582E-1,-3.3871646E-3,-2.8731066E-1],"categories":[],"categories_nodes":[],"categories_segments":[],"categories_sizes":[],"default_left":[0,0,0,0,0,0,0,0,0,0,0,0,0,0,0,0,0,0,0,0,0,0,0,0,0,0,0,0,0,0,0,0,0,0,0,0,0,0,0,0,0,0,0,0,0,0,0,0,0,0,0,0,0,0,0,0,0,0,0,0,0,0,0,0,0],"id":18,"left_children":[1,3,5,7,9,11,13,15,17,19,21,23,25,27,29,31,-1,-1,-1,-1,33,35,-1,37,39,41,43,-1,-1,45,47,-1,-1,49,-1,-1,-1,-1,-1,-1,-1,51,53,55,57,-1,59,61,63,-1,-1,-1,-1,-1,-1,-1,-1,-1,-1,-1,-1,-1,-1,-1,-1],"loss_changes":[1.6881516E1,2.9844666E0,7.9457536E0,3.0704165E0,2.0423584E0,3.5924659E0,4.8906345E0,4.434277E0,3.1051397E-2,8.666153E-1,4.6769037E0,2.1147437E0,2.78955E0,7.972586E0,2.2544518E0,9.23574E-3,0E0,0E0,0E0,0E0,7.234802E-1,3.788589E0,0E0,1.2461824E0,2.3903153E0,1.5039107E0,4.5109897E0,0E0,0E0,6.582199E0,1.4906368E0,0E0,0E0,6.442261E-1,0E0,0E0,0E0,0E0,0E0,0E0,0E0,1.0629592E0,4.6131384E-1,1.4172503E0,5.6782E0,0E0,4.2211504E0,1.0485978E0,8.432255E-1,0E0,0E0,0E0,0E0,0E0,0E0,0E0,0E0,0E0,0E0,0E0,0E0,0E0,0E0,0E0,0E0],"parents":[2147483647,0,0,1,1,2,2,3,3,4,4,5,5,6,6,7,7,8,8,9,9,10,10,11,11,12,12,13,13,14,14,15,15,20,20,21,21,23,23,24,24,25,25,26,26,29,29,30,30,33,33,41,41,42,42,43,43,44,44,46,46,47,47,48,48],"right_children":[2,4,6,8,10,12,14,16,18,20,22,24,26,28,30,32,-1,-1,-1,-1,34,36,-1,38,40,42,44,-1,-1,46,48,-1,-1,50,-1,-1,-1,-1,-1,-1,-1,52,54,56,58,-1,60,62,64,-1,-1,-1,-1,-1,-1,-1,-1,-1,-1,-1,-1,-1,-1,-1,-1],"split_conditions":[7.413282E-1,-1.7859976E0,-4.254906E-1,-1.1814422E-1,8.6526734E-1,-1.0243661E-2,-3.492713E-1,-3.685977E-1,-3.887841E-1,-3.4368346E0,-3.3360067E-1,4.530643E-1,-8.609846E-1,7.8060925E-2,-6.0286105E-1,1.3643541E0,4.0273255E-1,-6.195114E-2,-2.3568726E-1,-3.7285828E-3,1.5944186E0,7.42854E-1,-2.5446373E-1,-1.2688379E0,-8.215705E-2,-3.6156354E0,-8.550527E-2,-1.8303156E-1,5.932603E-1,4.3795803E-1,-3.4707233E-1,-1.6535781E-1,-4.2601712E-2,1.1368617E0,-2.4065917E-2,3.8616127E-1,-1.6491307E-1,5.7518642E-2,-2.4818872E-1,2.7294698E-1,-1.4763664E-1,2.932031E-1,-4.5822597E-1,1.1110166E-1,-4.391477E-1,-2.434636E-1,4.9030712E-1,-1.2631683E-1,-8.443128E-1,-2.9070267E-1,-4.270582E-2,1.1666681E-1,-4.5447186E-2,1.5949056E-2,-1.9215496E-1,7.756191E-2,-1.5407515E-1,-9.25547E-2,4.1096988E-1,3.8598055E-1,-1.6637425E-1,-1.5507248E-1,1.4976582E-1,-3.3871646E-3,-2.8731066E-1],"split_indices":[4,14,14,26,29,11,29,1,16,3,26,25,6,28,12,2,0,0,0,0,22,6,0,6,13,14,21,0,0,22,29,0,0,26,0,0,0,0,0,0,0,28,26,13,24,0,18,7,26,0,0,0,0,0,0,0,0,0,0,0,0,0,0,0,0],"split_type":[0,0,0,0,0,0,0,0,0,0,0,0,0,0,0,0,0,0,0,0,0,0,0,0,0,0,0,0,0,0,0,0,0,0,0,0,0,0,0,0,0,0,0,0,0,0,0,0,0,0,0,0,0,0,0,0,0,0,0,0,0,0,0,0,0],"sum_hessian":[1.9759718E2,1.1380031E2,8.379688E1,8.27712E0,1.0552319E2,4.4958443E1,3.8838436E1,3.6646302E0,4.6124897E0,9.715943E1,8.36376E0,1.0940805E1,3.401764E1,3.1273792E0,3.5711056E1,2.2004216E0,1.4642087E0,1.0086601E0,3.6038296E0,1.023902E0,9.613553E1,2.8212438E0,5.5425167E0,7.9853797E0,2.9554253E0,1.7629034E1,1.6388605E1,2.1248317E0,1.0025474E0,1.0539343E1,2.5171713E1,1.1955035E0,1.004918E0,9.499655E1,1.1389775E0,1.6115444E0,1.2096994E0,1.0222319E0,6.9631476E0,1.3730855E0,1.5823399E0,1.2830589E1,4.7984443E0,7.728597E0,8.660008E0,6.811985E0,3.7273579E0,2.0647628E0,2.310695E1,9.366578E1,1.3307716E0,5.679554E0,7.151036E0,1.0178906E0,3.7805536E0,4.520564E0,3.208033E0,2.3424659E0,6.317542E0,2.4988687E0,1.2284892E0,1.0643165E0,1.0004463E0,1.0064496E0,2.21005E1],"tree_param":{"num_deleted":"0","num_feature":"30","num_nodes":"65","size_leaf_vector":"1"}},{"base_weights":[-5.4097843E-1,-8.1259596E-1,-2.1958444E-1,-2.1103424E-1,-8.676817E-1,-1.1104577E-2,-5.847258E-1,-4.5746985E-1,1.8957461E-1,-9.312965E-1,-3.9116856E-1,1.04036845E-1,-7.242817E-1,1.6245322E-1,-6.616613E-1,3.3276733E-2,-6.837178E-1,-1.7387044E-1,-9.570923E-1,-7.8836435E-1,9.5854247E-1,2.3599239E-1,-4.715814E-1,-2.5234848E-1,-1.4650514E-3,-1.2799253E-1,-8.661552E-1,-3.7374392E-2,-2.3439747E-1,-1.8421268E-1,1.442164E-1,-2.9130685E-1,-3.1714085E-2,-2.6451954E-1,-1.619438E-3,4.4801292E-1,-1.1156277E-2,5.6906545E-1,-1.042135E-1,-6.3439363E-1,1.1421805E-1,-5.8685654E-1,7.3681515E-1,-1.5320213E-3,-9.132882E-1,4.335858E-1,3.7453823E-2,6.285357E-2,-1.2037507E-1,-2.3126571E-1,-8.5235555E-3,-2.4414828E-1,8.689201E-2,4.9538383E-1,-1.1405397E-1,-5.4919768E-2,-2.8406924E-1],"categories":[],"categories_nodes":[],"categories_segments":[],"categories_sizes":[],"default_left":[0,0,0,0,0,0,0,0,0,0,0,0,0,0,0,0,0,0,0,0,0,0,0,0,0,0,0,0,0,0,0,0,0,0,0,0,0,0,0,0,0,0,0,0,0,0,0,0,0,0,0,0,0,0,0,0,0],"id":19,"left_children":[1,3,5,7,9,11,13,15,-1,17,19,21,23,-1,25,-1,27,29,31,33,35,37,39,-1,-1,41,43,-1,-1,-1,-1,-1,-1,-1,-1,-1,-1,45,47,49,-1,51,53,-1,55,-1,-1,-1,-1,-1,-1,-1,-1,-1,-1,-1,-1],"loss_changes":[1.4379192E1,2.7995644E0,5.9123526E0,2.1321266E0,2.1255493E0,4.2232733E0,2.8051596E0,1.0332782E0,0E0,1.2352486E0,6.866192E0,3.4811249E0,5.968504E-1,0E0,2.822998E0,0E0,2.0091939E-1,1.3280654E0,7.175255E-1,6.7913866E-1,1.676024E0,4.224518E0,1.4359291E0,0E0,0E0,3.85346E0,7.770872E-1,0E0,0E0,0E0,0E0,0E0,0E0,0E0,0E0,0E0,0E0,7.109398E0,1.8574034E0,6.0685825E-1,0E0,1.4669673E0,4.1333075E0,0E0,2.7472973E-1,0E0,0E0,0E0,0E0,0E0,0E0,0E0,0E0,0E0,0E0,0E0,0E0],"parents":[2147483647,0,0,1,1,2,2,3,3,4,4,5,5,6,6,7,7,9,9,10,10,11,11,12,12,14,14,16,16,17,17,18,18,19,19,20,20,21,21,22,22,25,25,26,26,37,37,38,38,39,39,41,41,42,42,44,44],"right_children":[2,4,6,8,10,12,14,16,-1,18,20,22,24,-1,26,-1,28,30,32,34,36,38,40,-1,-1,42,44,-1,-1,-1,-1,-1,-1,-1,-1,-1,-1,46,48,50,-1,52,54,-1,56,-1,-1,-1,-1,-1,-1,-1,-1,-1,-1,-1,-1],"split_conditions":[7.413282E-1,-1.7859976E0,-1.9368598E-2,-1.8931006E0,1.0663408E0,1.2776982E0,7.754518E-1,-4.3211153E-1,1.8957461E-1,-9.853448E-1,1.5378694E-1,1.2456738E0,1.068414E0,1.6245322E-1,-1.10222556E-1,3.3276733E-2,-5.9184855E-1,-1.815765E-1,1.1368617E0,7.620058E-1,-2.3762171E-1,1.3906277E0,7.201301E-1,-2.5234848E-1,-1.4650514E-3,3.737651E-1,-5.0159526E-1,-3.7374392E-2,-2.3439747E-1,-1.8421268E-1,1.442164E-1,-2.9130685E-1,-3.1714085E-2,-2.6451954E-1,-1.619438E-3,4.4801292E-1,-1.1156277E-2,-3.2264403E-1,-3.7707021E0,1.4300874E0,1.1421805E-1,1.2424836E0,-2.8116187E-2,-1.5320213E-3,-1.8508509E0,4.335858E-1,3.7453823E-2,6.285357E-2,-1.2037507E-1,-2.3126571E-1,-8.5235555E-3,-2.4414828E-1,8.689201E-2,4.9538383E-1,-1.1405397E-1,-5.4919768E-2,-2.8406924E-1],"split_indices":[4,14,12,14,7,3,4,24,0,20,4,1,14,0,21,0,17,7,26,15,10,2,6,0,0,25,20,0,0,0,0,0,0,0,0,0,0,29,3,11,0,0,9,0,15,0,0,0,0,0,0,0,0,0,0,0,0],"split_type":[0,0,0,0,0,0,0,0,0,0,0,0,0,0,0,0,0,0,0,0,0,0,0,0,0,0,0,0,0,0,0,0,0,0,0,0,0,0,0,0,0,0,0,0,0,0,0,0,0,0,0,0,0,0,0,0,0],"sum_hessian":[1.657612E2,8.900915E1,7.675206E1,7.872188E0,8.113696E1,4.951281E1,2.723925E1,6.445229E0,1.4269587E0,7.073887E1,1.0398091E1,4.3365616E1,6.147194E0,1.3556587E0,2.588359E1,1.9801984E0,4.4650307E0,2.5847428E0,6.815413E1,8.355206E0,2.042886E0,3.5758343E1,7.6072736E0,5.142449E0,1.004745E0,7.6209784E0,1.8262613E1,1.0019239E0,3.4631069E0,1.5825342E0,1.0022086E0,6.691865E1,1.235477E0,7.352312E0,1.0028936E0,1.0038892E0,1.0389968E0,1.7728668E1,1.8029675E1,6.601834E0,1.0054398E0,5.189075E0,2.4319034E0,1.0053186E0,1.7257294E1,5.2061067E0,1.2522561E1,8.911817E0,9.117857E0,5.1660905E0,1.4357431E0,4.1785326E0,1.0105423E0,1.0741735E0,1.3577298E0,1.043005E0,1.6214289E1],"tree_param":{"num_deleted":"0","num_feature":"30","num_nodes":"57","size_leaf_vector":"1"}},{"base_weights":[-4.749566E-1,-9.130928E-2,-7.00283E-1,-7.416286E-1,2.22343E-2,-7.8487957E-1,-4.2341724E-2,-2.5770622E-1,9.233178E-3,9.607202E-2,-2.2899964E-1,-8.5289264E-1,-1.5149678E-1,-4.111207E-1,7.5685626E-1,8.422098E-3,1.0945444E0,-2.4804847E-1,-9.2216074E-1,-5.8865523E-1,8.246339E-1,2.2507048E-1,-7.251179E-1,4.3752545E-1,-1.5860675E-1,-5.836732E-2,2.4648075E-1,6.379591E-1,-7.921746E-2,7.4153215E-1,-7.320508E-1,-2.4317028E-3,-9.368074E-1,-2.4703524E-1,8.812592E-2,4.0895385E-1,-3.0877521E-2,-2.5311637E-1,-9.766156E-4,-5.916805E-2,8.135632E-2,5.726238E-1,-1.7258905E-1,-2.5278905E-1,-2.151848E-2,-2.8531545E-1,-1.0843571E-1],"categories":[],"categories_nodes":[],"categories_segments":[],"categories_sizes":[],"default_left":[0,0,0,0,0,0,0,0,0,0,0,0,0,0,0,0,0,0,0,0,0,0,0,0,0,0,0,0,0,0,0,0,0,0,0,0,0,0,0,0,0,0,0,0,0,0,0],"id":20,"left_children":[1,3,5,7,9,11,13,-1,-1,15,-1,17,19,21,23,25,27,29,31,33,35,-1,37,-1,-1,39,-1,-1,-1,41,43,-1,45,-1,-1,-1,-1,-1,-1,-1,-1,-1,-1,-1,-1,-1,-1],"loss_changes":[1.2266563E1,3.998481E0,4.960037E0,7.559247E-1,2.792727E0,3.2926369E0,3.635005E0,0E0,0E0,3.8189673E0,0E0,2.7674675E0,4.2911525E0,3.5943596E0,4.2999926E0,2.286711E0,5.499963E0,4.717652E0,8.465271E-1,1.6390057E0,1.7264102E0,0E0,6.045308E-1,0E0,0E0,1.8393629E0,0E0,0E0,0E0,6.2620482E0,4.0371418E-1,0E0,1.7077255E-1,0E0,0E0,0E0,0E0,0E0,0E0,0E0,0E0,0E0,0E0,0E0,0E0,0E0,0E0],"parents":[2147483647,0,0,1,1,2,2,3,3,4,4,5,5,6,6,9,9,11,11,12,12,13,13,14,14,15,15,16,16,17,17,18,18,19,19,20,20,22,22,25,25,29,29,30,30,32,32],"right_children":[2,4,6,8,10,12,14,-1,-1,16,-1,18,20,22,24,26,28,30,32,34,36,-1,38,-1,-1,40,-1,-1,-1,42,44,-1,46,-1,-1,-1,-1,-1,-1,-1,-1,-1,-1,-1,-1,-1,-1],"split_conditions":[-8.069166E-1,-4.5871922E-1,1.278442E0,1.2557341E0,1.2329714E0,2.8410146E0,6.8208414E-1,-2.5770622E-1,9.233178E-3,6.062443E-1,-2.2899964E-1,-5.0159526E-1,1.664085E-1,-1.3772155E0,-3.7924062E-2,1.6930159E0,3.494093E-2,-5.703009E-1,-2.8117332E0,7.625693E-1,-3.2324374E-1,2.2507048E-1,-5.2494733E-3,4.3752545E-1,-1.5860675E-1,4.258114E-2,2.4648075E-1,6.379591E-1,-7.921746E-2,-7.8834265E-1,4.345626E-1,-2.4317028E-3,1.0663408E0,-2.4703524E-1,8.812592E-2,4.0895385E-1,-3.0877521E-2,-2.5311637E-1,-9.766156E-4,-5.916805E-2,8.135632E-2,5.726238E-1,-1.7258905E-1,-2.5278905E-1,-2.151848E-2,-2.8531545E-1,-1.0843571E-1],"split_indices":[14,4,7,11,3,4,19,0,0,3,0,20,28,11,2,21,27,15,12,11,29,0,8,0,0,29,0,0,0,16,7,0,7,0,0,0,0,0,0,0,0,0,0,0,0,0,0],"split_type":[0,0,0,0,0,0,0,0,0,0,0,0,0,0,0,0,0,0,0,0,0,0,0,0,0,0,0,0,0,0,0,0,0,0,0,0,0,0,0,0,0,0,0,0,0,0,0],"sum_hessian":[1.4163847E2,5.2927605E1,8.871086E1,7.0451183E0,4.5882484E1,7.843317E1,1.0277694E1,6.018305E0,1.0268134E0,4.2742676E1,3.1398075E0,7.051469E1,7.9184794E0,7.3648624E0,2.9128315E0,4.02204E1,2.5222738E0,7.7164245E0,6.2798264E1,5.743302E0,2.1751776E0,1.2717692E0,6.093093E0,1.7974393E0,1.1153923E0,3.802546E1,2.194944E0,1.1122115E0,1.4100624E0,2.3597162E0,5.3567085E0,1.0148977E0,6.1783367E1,4.5890417E0,1.15426E0,1.0790398E0,1.0961378E0,5.0882697E0,1.0048234E0,2.7035475E1,1.0989984E1,1.0126338E0,1.3470824E0,4.351847E0,1.0048612E0,5.9653545E1,2.1298234E0],"tree_param":{"num_deleted":"0","num_feature":"30","num_nodes":"47","size_leaf_vector":"1"}},{"base_weights":[-4.051016E-1,-7.172236E-1,-1.2183786E-1,-2.7702236E-1,-8.4862256E-1,2.6551139E-2,-4.9230245E-1,-7.546619E-1,2.5500286E-1,-8.8650644E-1,8.6520836E-2,2.3837945E-1,-3.0637845E-1,-6.615015E-1,6.3208735E-1,-4.5297365E-3,-2.589064E-1,-2.974751E-1,4.0726477E-1,-2.0889257E-1,-9.274531E-1,5.966128E-1,-1.5570419E-1,2.8259411E-2,-7.7094877E-1,4.3892357E-2,-8.542936E-1,-8.357821E-3,2.9273897E-1,-2.1006903E-1,1.07626334E-1,-1.9230601E-1,1.4875631E-1,-9.50494E-1,-1.5796063E-2,7.903015E-1,-3.8530475E-1,5.1682234E-1,-3.3892947E-1,-2.25481E-1,3.5272476E-1,-5.1894296E-2,-2.496893E-1,-1.839938E-1,2.381977E-1,-7.7842904E-4,-2.767707E-1,-2.9244217E-1,-1.6678497E-2,3.8579673E-1,5.2459862E-2,-1.7188752E-1,7.024229E-3,-1.5461099E-1,3.666895E-1,1.5150385E-1,-1.60113E-1,1.0035447E-1,-1.3403949E-1,-9.664605E-3,1.6503617E-1],"categories":[],"categories_nodes":[],"categories_segments":[],"categories_sizes":[],"default_left":[0,0,0,0,0,0,0,0,0,0,0,0,0,0,0,0,0,0,0,0,0,0,0,0,0,0,0,0,0,0,0,0,0,0,0,0,0,0,0,0,0,0,0,0,0,0,0,0,0,0,0,0,0,0,0,0,0,0,0,0,0],"id":21,"left_children":[1,3,5,7,9,11,13,15,17,19,-1,21,23,25,27,-1,-1,29,-1,31,33,35,37,39,41,43,45,-1,-1,-1,-1,-1,-1,47,-1,49,51,53,55,57,59,-1,-1,-1,-1,-1,-1,-1,-1,-1,-1,-1,-1,-1,-1,-1,-1,-1,-1,-1,-1],"loss_changes":[1.0919491E1,3.1790524E0,3.6670508E0,4.0177374E0,2.1928406E0,3.4869514E0,4.0443707E0,6.428752E-1,5.196905E0,1.0206299E0,0E0,4.3488636E0,3.0161471E0,2.3570633E0,7.0869327E-1,0E0,0E0,1.8534551E0,0E0,1.4704655E0,7.760048E-1,3.347252E0,2.04179E0,1.0807312E0,1.5317869E-1,2.7606442E0,7.7938366E-1,0E0,0E0,0E0,0E0,0E0,0E0,8.1334305E-1,0E0,3.9516315E0,2.6714218E-1,3.2801368E0,2.3257675E0,1.0708282E0,4.5286304E-1,0E0,0E0,0E0,0E0,0E0,0E0,0E0,0E0,0E0,0E0,0E0,0E0,0E0,0E0,0E0,0E0,0E0,0E0,0E0,0E0],"parents":[2147483647,0,0,1,1,2,2,3,3,4,4,5,5,6,6,7,7,8,8,9,9,11,11,12,12,13,13,14,14,17,17,19,19,20,20,21,21,22,22,23,23,24,24,25,25,26,26,33,33,35,35,36,36,37,37,38,38,39,39,40,40],"right_children":[2,4,6,8,10,12,14,16,18,20,-1,22,24,26,28,-1,-1,30,-1,32,34,36,38,40,42,44,46,-1,-1,-1,-1,-1,-1,48,-1,50,52,54,56,58,60,-1,-1,-1,-1,-1,-1,-1,-1,-1,-1,-1,-1,-1,-1,-1,-1,-1,-1,-1,-1],"split_conditions":[7.413282E-1,-8.771465E-1,1.475731E-1,-7.6918113E-1,1.5944186E0,2.260544E-1,6.573578E-1,-2.385491E0,1.0663408E0,-1.1252395E0,8.6520836E-2,5.4669328E-2,-2.635484E0,-7.4005884E-1,1.5914398E-1,-4.5297365E-3,-2.589064E-1,-1.8642923E-1,4.0726477E-1,6.558384E-3,1.3148257E0,6.506218E-1,-1.3268673E0,-2.8854036E-1,-1.4183282E0,-1.4925846E0,-1.8782043E0,-8.357821E-3,2.9273897E-1,-2.1006903E-1,1.07626334E-1,-1.9230601E-1,1.4875631E-1,1.7391944E0,-1.5796063E-2,4.0059403E-1,1.28753595E-2,1.0062768E0,-6.3199097E-1,-3.2211623E-1,-2.687435E-1,-5.1894296E-2,-2.496893E-1,-1.839938E-1,2.381977E-1,-7.7842904E-4,-2.767707E-1,-2.9244217E-1,-1.6678497E-2,3.8579673E-1,5.2459862E-2,-1.7188752E-1,7.024229E-3,-1.5461099E-1,3.666895E-1,1.5150385E-1,-1.60113E-1,1.0035447E-1,-1.3403949E-1,-9.664605E-3,1.6503617E-1],"split_indices":[4,10,14,1,22,8,24,14,7,19,0,0,14,7,21,0,0,29,0,29,12,10,15,29,13,1,19,0,0,0,0,0,0,16,0,16,29,0,7,24,26,0,0,0,0,0,0,0,0,0,0,0,0,0,0,0,0,0,0,0,0],"split_type":[0,0,0,0,0,0,0,0,0,0,0,0,0,0,0,0,0,0,0,0,0,0,0,0,0,0,0,0,0,0,0,0,0,0,0,0,0,0,0,0,0,0,0,0,0,0,0,0,0,0,0,0,0,0,0,0,0,0,0,0,0],"sum_hessian":[1.2349407E2,5.8025295E1,6.546877E1,1.40533285E1,4.3971966E1,4.7407932E1,1.8060843E1,7.1846504E0,6.868678E0,4.2767353E1,1.204612E0,2.9146992E1,1.8260942E1,1.6056349E1,2.0044925E0,1.0637566E0,6.120894E0,5.0622263E0,1.8064522E0,2.7847607E0,3.9982594E1,1.4998761E1,1.4148231E1,1.1160801E1,7.100142E0,3.6122105E0,1.24441395E1,1.0011522E0,1.0033405E0,3.095401E0,1.9668251E0,1.782324E0,1.0024366E0,3.887223E1,1.110363E0,1.2690613E1,2.3081484E0,2.6394527E0,1.1508778E1,6.4341755E0,4.726625E0,1.0160749E0,6.084067E0,2.0225227E0,1.5896878E0,1.0005693E0,1.1443569E1,3.775713E1,1.1151029E0,6.4256597E0,6.264953E0,1.3064727E0,1.0016758E0,1.1809942E0,1.4584584E0,1.8594506E0,9.649327E0,1.6776842E0,4.7564917E0,1.8858466E0,2.8407784E0],"tree_param":{"num_deleted":"0","num_feature":"30","num_nodes":"61","size_leaf_vector":"1"}},{"base_weights":[-3.456136E-1,-7.3849547E-1,-1.3757485E-1,-8.4763175E-1,-3.4973878E-1,3.58521E-2,-4.7071362E-1,4.565603E-3,-8.835827E-1,2.4836361E-1,-6.990174E-1,6.1234456E-1,-6.0524207E-2,-7.479807E-1,-1.9390812E-2,-9.195655E-1,-9.088656E-3,-1.9027694E-1,3.6166576E-1,-1.4751042E-3,-2.468165E-1,1.2984098E0,-6.526893E-2,3.2195127E-1,-1.6811992E-1,6.4767934E-2,-2.7710402E-1,-4.8204038E-1,5.6696504E-1,-2.8659877E-1,-1.7241496E-3,1.40024405E-2,5.5611175E-1,2.3008482E-1,-5.1659507E-1,-4.0126532E-1,6.389943E-1,1.7596275E-1,-5.2120525E-1,-1.8162914E-1,2.4365623E-1,-2.2835906E-1,1.5448633E-1,-1.7021377E-1,1.081481E0,-4.4318605E-2,-1.8644321E-1,2.6750391E-2,-1.9134201E-1,3.0993593E-1,-5.0356198E-2,-2.8407514E-2,2.4229364E-1,-2.531276E-2,-2.409858E-1,4.9524817E-1,-5.8417067E-2],"categories":[],"categories_nodes":[],"categories_segments":[],"categories_sizes":[],"default_left":[0,0,0,0,0,0,0,0,0,0,0,0,0,0,0,0,0,0,0,0,0,0,0,0,0,0,0,0,0,0,0,0,0,0,0,0,0,0,0,0,0,0,0,0,0,0,0,0,0,0,0,0,0,0,0,0,0],"id":22,"left_children":[1,3,5,7,9,11,13,-1,15,17,19,21,23,25,27,29,-1,-1,-1,-1,-1,31,33,35,37,39,-1,41,43,-1,-1,-1,-1,-1,45,47,49,51,53,-1,-1,-1,-1,-1,55,-1,-1,-1,-1,-1,-1,-1,-1,-1,-1,-1,-1],"loss_changes":[8.923587E0,1.3157387E0,4.2588434E0,9.120121E-1,2.269256E0,2.7714312E0,3.1398692E0,0E0,8.2648087E-1,4.512545E0,5.6225085E-1,3.4035945E0,1.8267998E0,2.2857819E0,3.1540892E0,8.659744E-1,0E0,0E0,0E0,0E0,0E0,2.4124837E0,2.102855E0,2.5035305E0,4.2558203E0,2.3477724E0,0E0,2.1944525E0,3.6152859E0,0E0,0E0,0E0,0E0,0E0,4.5283258E-2,4.746319E-1,2.4627504E0,3.1721015E0,2.0477662E0,0E0,0E0,0E0,0E0,0E0,3.1423373E0,0E0,0E0,0E0,0E0,0E0,0E0,0E0,0E0,0E0,0E0,0E0,0E0],"parents":[2147483647,0,0,1,1,2,2,3,3,4,4,5,5,6,6,8,8,9,9,10,10,11,11,12,12,13,13,14,14,15,15,21,21,22,22,23,23,24,24,25,25,27,27,28,28,34,34,35,35,36,36,37,37,38,38,44,44],"right_children":[2,4,6,8,10,12,14,-1,16,18,20,22,24,26,28,30,-1,-1,-1,-1,-1,32,34,36,38,40,-1,42,44,-1,-1,-1,-1,-1,46,48,50,52,54,-1,-1,-1,-1,-1,56,-1,-1,-1,-1,-1,-1,-1,-1,-1,-1,-1,-1],"split_conditions":[3.1228277E-1,1.5852565E-1,2.5552018E-2,-3.5015085E-1,-1.0107267E0,-4.5147577E-1,5.5362684E-1,4.565603E-3,1.2129052E0,-7.6918113E-1,-4.8812255E-1,-9.8504925E-1,-1.4724427E0,-3.4707233E-1,1.1735835E0,1.6726968E0,-9.088656E-3,-1.9027694E-1,3.6166576E-1,-1.4751042E-3,-2.468165E-1,-1.17418595E-1,-1.3052486E0,-1.6071233E-1,-3.784082E-1,6.79898E-1,-2.7710402E-1,8.9755684E-1,-2.005085E-2,-2.8659877E-1,-1.7241496E-3,1.40024405E-2,5.5611175E-1,2.3008482E-1,-9.4944847E-1,-8.475518E-2,1.726276E-1,2.977057E-1,-3.3243933E-1,-1.8162914E-1,2.4365623E-1,-2.2835906E-1,1.5448633E-1,-1.7021377E-1,-1.1702472E-1,-4.4318605E-2,-1.8644321E-1,2.6750391E-2,-1.9134201E-1,3.0993593E-1,-5.0356198E-2,-2.8407514E-2,2.4229364E-1,-2.531276E-2,-2.409858E-1,4.9524817E-1,-5.8417067E-2],"split_indices":[4,29,12,29,10,26,17,0,19,1,26,13,19,29,1,16,0,0,0,0,0,20,7,21,16,12,0,22,27,0,0,0,0,0,1,0,6,23,29,0,0,0,0,0,22,0,0,0,0,0,0,0,0,0,0,0,0],"split_type":[0,0,0,0,0,0,0,0,0,0,0,0,0,0,0,0,0,0,0,0,0,0,0,0,0,0,0,0,0,0,0,0,0,0,0,0,0,0,0,0,0,0,0,0,0,0,0,0,0,0,0,0,0,0,0,0,0],"sum_hessian":[1.0942055E2,3.699866E1,7.242189E1,2.7967056E1,9.031604E0,4.8214523E1,2.4207363E1,1.1417154E0,2.6825342E1,3.4362745E0,5.5953298E0,6.1390424E0,4.207548E1,1.4588011E1,9.619352E0,2.5665369E1,1.1599716E0,1.9632995E0,1.4729749E0,1.0036471E0,4.5916824E0,2.5952604E0,3.5437818E0,8.800326E0,3.3275158E1,2.7052858E0,1.1882725E1,5.4763103E0,4.143042E0,2.4655031E1,1.0103381E0,1.1306437E0,1.4646167E0,1.000182E0,2.5435998E0,2.6011386E0,6.1991873E0,1.7106482E1,1.6168674E1,1.526485E0,1.1788008E0,4.463147E0,1.0131634E0,1.2607484E0,2.8822937E0,1.0963401E0,1.4472598E0,1.0490739E0,1.5520647E0,3.976384E0,2.2228034E0,1.2570534E1,4.5359483E0,6.8538866E0,9.314788E0,1.790129E0,1.0921646E0],"tree_param":{"num_deleted":"0","num_feature":"30","num_nodes":"57","size_leaf_vector":"1"}},{"base_weights":[-2.9246575E-1,-8.1764185E-1,-1.4328694E-1,-1.0025104E-1,-8.968978E-1,5.76385E-2,-4.1790622E-1,-1.5480025E-1,1.2547772E-1,-2.837159E-1,-5.1706554E-3,2.199293E-3,3.3787873E-1,-5.8419544E-1,3.911582E-1,7.279273E-2,-2.2448827E-1,-7.3555686E-2,-8.082003E-1,4.6433684E-1,-2.4388029E-1,-1.6819727E-2,9.1938597E-1,-2.1401162E-1,3.9967152E-1,-8.8714623E-1,5.977607E-3,-2.1333447E-1,1.4913829E-1,4.166805E-2,-7.4716195E-2,-1.4178611E-1,6.2631476E-1,3.4379143E-1,-8.993289E-2,-2.820431E-1,-1.2819363E-2],"categories":[],"categories_nodes":[],"categories_segments":[],"categories_sizes":[],"default_left":[0,0,0,0,0,0,0,0,0,0,0,0,0,0,0,0,0,0,0,0,0,0,0,0,0,0,0,0,0,0,0,0,0,0,0,0,0],"id":23,"left_children":[1,3,5,7,9,11,13,-1,-1,-1,-1,15,-1,17,19,21,-1,23,25,-1,27,29,31,-1,33,35,-1,-1,-1,-1,-1,-1,-1,-1,-1,-1,-1],"loss_changes":[7.6002016E0,1.1369791E0,4.3238993E0,9.2130065E-1,8.1282043E-1,2.7156165E0,4.6745214E0,0E0,0E0,0E0,0E0,2.4183836E0,0E0,3.1219912E0,4.9556932E0,3.17861E0,0E0,3.185983E0,1.2750368E0,0E0,2.0457563E0,1.4335296E0,7.506442E0,0E0,3.5529408E0,7.465868E-1,0E0,0E0,0E0,0E0,0E0,0E0,0E0,0E0,0E0,0E0,0E0],"parents":[2147483647,0,0,1,1,2,2,3,3,4,4,5,5,6,6,11,11,13,13,14,14,15,15,17,17,18,18,20,20,21,21,22,22,24,24,25,25],"right_children":[2,4,6,8,10,12,14,-1,-1,-1,-1,16,-1,18,20,22,-1,24,26,-1,28,30,32,-1,34,36,-1,-1,-1,-1,-1,-1,-1,-1,-1,-1,-1],"split_conditions":[-2.9450953E-1,-1.6016932E0,-4.254906E-1,-8.482462E-1,1.4919358E0,-4.9916112E-1,1.278442E0,-1.5480025E-1,1.2547772E-1,-2.837159E-1,-5.1706554E-3,1.2329714E0,3.3787873E-1,-3.3727702E-1,1.5493213E0,6.4547724E-1,-2.2448827E-1,9.92398E-3,1.3634518E0,4.6433684E-1,-6.563022E-2,3.248912E-1,6.45305E-2,-2.1401162E-1,-1.05382696E-1,2.1439874E0,5.977607E-3,-2.1333447E-1,1.4913829E-1,4.166805E-2,-7.4716195E-2,-1.4178611E-1,6.2631476E-1,3.4379143E-1,-8.993289E-2,-2.820431E-1,-1.2819363E-2],"split_indices":[4,10,14,1,0,14,7,0,0,0,0,3,0,29,7,3,0,28,19,0,9,7,16,0,26,6,0,0,0,0,0,0,0,0,0,0,0],"split_type":[0,0,0,0,0,0,0,0,0,0,0,0,0,0,0,0,0,0,0,0,0,0,0,0,0,0,0,0,0,0,0,0,0,0,0,0,0],"sum_hessian":[9.750463E1,2.0578424E1,7.692621E1,2.2726133E0,1.830581E1,4.48799E1,3.2046307E1,1.2639761E0,1.0086371E0,1.7272104E1,1.0337074E0,4.3619045E1,1.2608571E0,2.6813244E1,5.233063E0,4.069424E1,2.9248028E0,8.580826E0,1.8232418E1,1.3453627E0,3.8877006E0,3.7685356E1,3.0088873E0,3.432512E0,5.1483135E0,1.6580515E1,1.6519035E0,2.4090443E0,1.478656E0,2.279992E1,1.4885435E1,1.6447382E0,1.3641492E0,2.1818836E0,2.96643E0,1.5494668E1,1.0858463E0],"tree_param":{"num_deleted":"0","num_feature":"30","num_nodes":"37","size_leaf_vector":"1"}},{"base_weights":[-2.406524E-1,-7.720001E-1,-1.14033595E-1,-3.3988092E-2,-8.704266E-1,3.550418E-2,-4.065729E-1,-1.5708746E-1,1.4657535E-1,-2.7890122E-1,-6.3532908E-3,3.523671E-1,-1.23049915E-1,2.1886162E-1,-5.723105E-1,1.4794822E0,8.278473E-2,1.7223673E-1,-5.328607E-1,-3.4703127E-1,7.851537E-1,-8.610507E-1,7.099262E-2,6.7810416E-1,-1.2111667E-2,2.2428519E-1,-1.8478525E-1,-4.7443505E-2,9.925874E-1,9.919057E-2,-6.485166E-1,6.3052654E-2,-1.8950458E-1,2.1036576E-2,3.514105E-1,-2.637757E-3,-2.780693E-1,7.673192E-1,-2.2204563E-1,-2.6407257E-2,2.0004599E-1,2.1292147E-1,-6.748234E-2,1.3257848E-3,4.461341E-1,-1.0869696E-2,-2.581567E-1,3.9195022E-1,-1.07373714E-1],"categories":[],"categories_nodes":[],"categories_segments":[],"categories_sizes":[],"default_left":[0,0,0,0,0,0,0,0,0,0,0,0,0,0,0,0,0,0,0,0,0,0,0,0,0,0,0,0,0,0,0,0,0,0,0,0,0,0,0,0,0,0,0,0,0,0,0,0,0],"id":24,"left_children":[1,3,5,7,9,11,13,-1,-1,-1,-1,15,17,19,21,23,25,27,29,31,33,35,37,-1,-1,39,-1,41,43,-1,45,-1,-1,-1,-1,-1,-1,47,-1,-1,-1,-1,-1,-1,-1,-1,-1,-1,-1],"loss_changes":[6.0051923E0,1.2238464E0,3.2652507E0,1.0416479E0,7.4427605E-1,2.5601063E0,2.739214E0,0E0,0E0,0E0,0E0,5.032535E0,4.221779E0,2.1971416E0,3.8153038E0,3.9072194E0,1.5965315E0,3.7580512E0,1.6662169E0,7.192244E-1,8.315027E-1,7.789726E-1,4.6262364E0,0E0,0E0,1.855305E0,0E0,2.4708555E0,2.1412177E0,0E0,1.6767874E0,0E0,0E0,0E0,0E0,0E0,0E0,3.1111271E0,0E0,0E0,0E0,0E0,0E0,0E0,0E0,0E0,0E0,0E0,0E0],"parents":[2147483647,0,0,1,1,2,2,3,3,4,4,5,5,6,6,11,11,12,12,13,13,14,14,15,15,16,16,17,17,18,18,19,19,20,20,21,21,22,22,25,25,27,27,28,28,30,30,37,37],"right_children":[2,4,6,8,10,12,14,-1,-1,-1,-1,16,18,20,22,24,26,28,30,32,34,36,38,-1,-1,40,-1,42,44,-1,46,-1,-1,-1,-1,-1,-1,48,-1,-1,-1,-1,-1,-1,-1,-1,-1,-1,-1],"split_conditions":[-2.9450953E-1,-1.7859976E0,2.5552018E-2,1.2169349E-1,2.1790798E0,-7.287119E-1,-1.9638966E0,-1.5708746E-1,1.4657535E-1,-2.7890122E-1,-6.3532908E-3,1.2195172E0,-3.784082E-1,4.653702E-1,3.737651E-1,-2.0986031E-1,4.0181756E-1,4.5882496E-1,-1.002965E0,-8.9776385E-1,7.2452235E-1,-1.0364755E0,-4.947693E-2,6.7810416E-1,-1.2111667E-2,-2.743886E-2,-1.8478525E-1,-4.7721136E-1,2.3208484E-1,9.919057E-2,-7.52373E-1,6.3052654E-2,-1.8950458E-1,2.1036576E-2,3.514105E-1,-2.637757E-3,-2.780693E-1,4.0059403E-1,-2.2204563E-1,-2.6407257E-2,2.0004599E-1,2.1292147E-1,-6.748234E-2,1.3257848E-3,4.461341E-1,-1.0869696E-2,-2.581567E-1,3.9195022E-1,-1.07373714E-1],"split_indices":[4,14,12,24,7,19,3,0,0,0,0,4,16,9,25,0,24,24,22,9,12,13,21,0,0,24,0,24,15,0,9,0,0,0,0,0,0,16,0,0,0,0,0,0,0,0,0,0,0],"split_type":[0,0,0,0,0,0,0,0,0,0,0,0,0,0,0,0,0,0,0,0,0,0,0,0,0,0,0,0,0,0,0,0,0,0,0,0,0,0,0,0,0,0,0,0,0,0,0,0,0],"sum_hessian":[8.9567085E1,1.625538E1,7.33117E1,2.0711334E0,1.4184247E1,4.909458E1,2.421712E1,1.0682229E0,1.0029104E0,1.3170751E1,1.0134969E0,1.5965634E1,3.312895E1,5.005944E0,1.9211176E1,2.2153356E0,1.37502985E1,1.9591866E1,1.3537081E1,2.697516E0,2.3084276E0,1.302607E1,6.1851063E0,1.1415974E0,1.0737383E0,1.1999334E1,1.7509642E0,1.6196737E1,3.3951285E0,1.3794221E0,1.2157659E1,1.0005552E0,1.6969608E0,1.2239633E0,1.0844643E0,1.015532E0,1.2010537E1,3.357173E0,2.8279335E0,7.5043745E0,4.49496E0,2.5063586E0,1.3690379E1,1.4688972E0,1.9262313E0,3.4280787E0,8.729581E0,2.1607184E0,1.1964544E0],"tree_param":{"num_deleted":"0","num_feature":"30","num_nodes":"49","size_leaf_vector":"1"}},{"base_weights":[-1.9445503E-1,-7.219682E-1,-8.795388E-2,-7.3846225E-3,-8.3415574E-1,7.00766E-2,-3.3458042E-1,-2.7286586E-1,-2.9355371E-3,2.67573E-1,-1.9309872E-1,-4.9470973E-1,3.8676023E-1,7.850904E-1,-3.842039E-2,1.416816E-1,-6.099252E-1,2.2682317E-1,-6.3999045E-1,8.106875E-1,-1.7127411E-1,-6.34325E-2,1.4302135E0,